#ifndef WEIGHTS_H
#define WEIGHTS_H

// Auto-generated by export_weights_header.py — do not edit manually.
// Arrays declared static const so HLS synthesises them as BRAM ROMs.

static const float W1[64][784] = {
    /* row  0 */ { 1.13771409e-02f, 2.59670764e-02f, -2.43881270e-02f, 2.22134255e-02f, 3.17858420e-02f, 2.43444853e-02f, -2.64210552e-02f, 6.83812797e-03f, -3.03228572e-03f, -1.98372658e-02f, 3.00115906e-02f, -2.73429807e-02f, 5.91718033e-03f, 2.17018276e-02f, -3.12567875e-03f, 5.97127154e-03f, 3.01722251e-02f, -2.70517357e-02f, -1.33201014e-02f, 1.18608512e-02f, -1.50356181e-02f, -2.79093646e-02f, -2.66272053e-02f, 1.05847046e-02f, 2.57794447e-02f, -1.36789307e-02f, -2.94721182e-02f, 1.97783001e-02f, -6.62294403e-03f, -1.05068646e-02f, 9.76346433e-04f, 2.00164765e-02f, -2.16001626e-02f, -2.03814432e-02f, -1.73206627e-02f, -3.03382035e-02f, 1.12318173e-02f, -2.08121929e-02f, 3.31142657e-02f, 3.44612412e-02f, 2.99747661e-03f, 2.93094479e-02f, -3.04167531e-02f, 2.07448527e-02f, 3.41838561e-02f, 3.51026766e-02f, 2.26698145e-02f, -2.23634392e-03f, -2.83002350e-02f, 1.22321025e-02f, 3.37739997e-02f, -2.99555622e-02f, -2.04739328e-02f, 1.37639046e-02f, -8.29229131e-03f, 1.91434100e-03f, 3.85768712e-04f, 4.67976555e-03f, -5.26613370e-03f, -3.33840623e-02f, 1.73699111e-02f, 2.22991109e-02f, 1.24842972e-02f, 1.16763152e-02f, -2.10519582e-02f, 2.68866830e-02f, 1.05226375e-02f, -3.18226703e-02f, 1.55036747e-02f, -2.06935257e-02f, 3.04311328e-02f, 2.41336748e-02f, 1.19155087e-02f, 2.10109018e-02f, 2.98041105e-03f, 1.61151737e-02f, -2.59772036e-02f, -1.81670748e-02f, 3.42226215e-02f, 2.78491341e-02f, -2.64463220e-02f, -1.03602931e-02f, 2.22574696e-02f, 1.83182694e-02f, -2.35479474e-02f, 1.20931938e-02f, -3.14875841e-02f, 3.10687236e-02f, 6.25821203e-03f, 2.60157250e-02f, -3.19290459e-02f, 1.46102086e-02f, 1.04588643e-02f, -3.37677710e-02f, -4.17678803e-03f, 1.90450177e-02f, -2.46018469e-02f, 2.00869553e-02f, 3.26333307e-02f, 1.84328593e-02f, -8.72987136e-03f, -2.47849487e-02f, -2.56346557e-02f, -1.84431262e-02f, 2.72042789e-02f, -3.43402326e-02f, 1.67887434e-02f, -1.02538224e-02f, -1.48014892e-02f, 6.58012182e-03f, -1.15011167e-02f, -7.48369098e-03f, -1.03733409e-02f, 2.92650238e-03f, -2.56334040e-02f, -1.20257735e-02f, -2.36800797e-02f, 2.94433497e-02f, 3.62694263e-03f, -2.81563029e-03f, 1.21796988e-02f, 2.94994675e-02f, -6.65657222e-04f, -2.34646164e-02f, -2.70807724e-02f, -2.18414403e-02f, -2.76808515e-02f, -1.82041507e-02f, -9.54952929e-03f, 7.84051139e-03f, 2.00211108e-02f, 1.50638893e-02f, -3.32060270e-02f, 2.78716721e-02f, -1.70305632e-02f, 1.32235140e-03f, -2.58879326e-02f, -3.04632504e-02f, -8.86428729e-03f, -2.22174022e-02f, -1.41003430e-02f, 3.31576504e-02f, 2.91655771e-02f, 2.48645246e-02f, -3.31250653e-02f, -2.82439943e-02f, -2.41987165e-02f, 5.80277713e-03f, -2.31030360e-02f, -3.60132679e-02f, -3.69518995e-02f, 1.16020720e-02f, -1.88172981e-02f, 3.41354869e-02f, 1.35876490e-02f, -1.89168602e-02f, -9.01524164e-03f, 9.00380500e-03f, -9.80753452e-03f, 8.25518975e-04f, -1.13726035e-03f, -2.41063535e-04f, 9.61304083e-03f, -2.44814903e-03f, -2.27458403e-03f, 2.71895789e-02f, -3.21533345e-02f, 4.35999408e-03f, -1.44383963e-02f, 2.66644731e-03f, -2.56768242e-03f, 9.91871953e-03f, -5.74807636e-03f, -1.14837382e-02f, -8.21630750e-03f, -1.87608078e-02f, -4.15073857e-02f, 1.94067303e-02f, 1.25012621e-02f, 8.19590781e-03f, -1.08706420e-02f, -1.48293804e-02f, -3.32838483e-02f, -1.79581326e-02f, -1.22166760e-02f, -2.18605250e-02f, -3.53621691e-03f, -2.54055671e-02f, -2.77504809e-02f, 5.63398376e-03f, 1.29336938e-02f, -3.29802446e-02f, -7.61468522e-03f, -8.16793926e-03f, 1.87541991e-02f, 1.60555765e-02f, 1.03733242e-02f, 4.81266156e-03f, -1.44138634e-02f, 2.58082263e-02f, 5.05655259e-03f, -1.49862859e-02f, -1.96246412e-02f, 1.47548560e-02f, -5.65557275e-03f, 1.99321285e-02f, 1.70264430e-02f, -3.26465182e-02f, -1.62650142e-02f, 2.36536134e-02f, -3.77968177e-02f, -3.01429862e-03f, 2.02819239e-02f, 2.13551172e-03f, 5.43922279e-03f, -9.61925182e-03f, 3.10494956e-02f, -1.91701930e-02f, 1.19486675e-02f, 3.16642784e-02f, -2.59608384e-02f, 1.59420073e-04f, -5.11470065e-03f, -2.17269510e-02f, 8.69423896e-03f, 2.39087567e-02f, 2.70281769e-02f, -1.81878805e-02f, -6.41904585e-03f, 4.52630594e-03f, 5.41241234e-03f, -6.83923252e-04f, -2.16700993e-02f, 3.36421817e-03f, -6.54751016e-03f, 1.80756804e-02f, -9.30282474e-03f, -1.46456361e-02f, -2.89600585e-02f, -1.05018553e-03f, -2.73549091e-03f, -1.17339306e-02f, 2.14693733e-02f, -3.38920802e-02f, 1.03301900e-02f, -3.77050526e-02f, 4.43488359e-04f, 1.46547481e-02f, -1.80985034e-02f, -7.21879303e-04f, -2.91726347e-02f, 2.29446255e-02f, -3.29425000e-02f, -3.53155285e-03f, 2.68140920e-02f, -1.57665014e-02f, -2.32738908e-02f, 2.40178518e-02f, -2.95233391e-02f, -1.37004051e-02f, 1.67767238e-02f, 9.81090125e-03f, 1.86515432e-02f, -1.43339895e-02f, 1.56810284e-02f, -1.41393729e-02f, 4.68758726e-03f, 1.37007292e-02f, -8.64805654e-03f, 1.85828074e-03f, 1.93101708e-02f, -9.28508397e-03f, -2.81879641e-02f, -3.47546786e-02f, -8.29609577e-04f, 1.47716533e-02f, 2.97638513e-02f, -2.39394959e-02f, -9.77966748e-03f, -3.81584838e-03f, -1.16439722e-02f, -6.38475642e-03f, -9.76301730e-04f, 2.78418325e-02f, 1.68388188e-02f, 8.98153335e-03f, 1.94972567e-02f, 7.23402388e-03f, -2.91741397e-02f, -8.63303139e-04f, -1.24041894e-02f, 2.38836221e-02f, -8.13165866e-03f, -9.17668175e-03f, -1.18185859e-02f, -4.92022897e-04f, -6.01586769e-04f, 2.36824714e-02f, -3.67753096e-02f, 6.23148866e-03f, 1.62557960e-02f, -1.25683844e-02f, 2.66319122e-02f, -3.35870199e-02f, 1.72144026e-02f, 1.78379640e-02f, -5.26872650e-03f, -2.66644359e-02f, -5.30891865e-03f, -1.00765396e-02f, 1.72396749e-03f, 1.15971453e-02f, 3.91907617e-03f, -2.21362300e-02f, 1.27073303e-02f, -4.19530310e-02f, -1.11388844e-02f, 1.24351447e-02f, -2.12250222e-02f, 2.38202289e-02f, 3.62388164e-05f, -1.64418649e-02f, -2.12768223e-02f, 1.67589448e-02f, -4.67701294e-02f, -3.71498847e-03f, -1.29881746e-03f, 3.67355463e-03f, 5.86805772e-03f, -3.24191637e-02f, 1.18590370e-02f, 1.37356259e-02f, -1.53080951e-02f, -2.81095002e-02f, -3.00210342e-03f, 1.48274601e-02f, -1.70519538e-02f, 2.31013112e-02f, 1.06538273e-02f, 1.66934803e-02f, 2.97058634e-02f, -2.26640459e-02f, 1.48088485e-02f, -8.13078135e-03f, -1.39048100e-02f, -2.78320108e-02f, 2.49852743e-02f, 2.65694354e-02f, -7.07407063e-03f, -8.76350980e-03f, -7.12564774e-03f, -1.42414011e-02f, 2.85995449e-03f, 6.47192821e-04f, 2.78225653e-02f, -3.73811647e-02f, -2.15297900e-02f, 6.65511936e-04f, -7.01868162e-03f, -1.05885658e-02f, -3.50145288e-02f, -8.89250264e-03f, 3.28036882e-02f, 3.41485776e-02f, -3.52251381e-02f, 1.32749453e-02f, 8.53380933e-03f, -3.22554819e-02f, 9.06977803e-04f, -1.58263203e-02f, -1.53824147e-02f, -1.23773813e-02f, -2.25722622e-02f, -2.28238199e-02f, -3.85750458e-02f, -2.96547972e-02f, 3.24748904e-02f, 4.96125733e-03f, -2.11961288e-02f, -2.04881039e-02f, 2.14167628e-02f, -2.65552551e-02f, -4.23461162e-02f, -4.35487367e-02f, 2.14810818e-02f, -4.01662476e-02f, -1.87528692e-02f, 2.82286555e-02f, -3.26213576e-02f, -1.81101914e-02f, -1.56043731e-02f, -8.28392245e-03f, 1.84680894e-03f, 3.45118977e-02f, 9.81220230e-03f, 7.53795356e-03f, 1.21212490e-02f, -3.00797075e-02f, -1.72800571e-03f, -2.42439695e-02f, -2.58674696e-02f, -2.36742403e-02f, 2.80886469e-03f, -1.29845981e-02f, 5.60780754e-03f, -2.22899634e-02f, 1.34308832e-02f, -1.01529313e-02f, -1.44700555e-03f, -1.10955061e-02f, -4.49167937e-02f, 2.85580344e-02f, 3.09235286e-02f, 1.24398293e-02f, 5.36100566e-03f, -2.55461615e-02f, 2.07423568e-02f, -3.05708908e-02f, -4.37483564e-03f, -1.80403981e-02f, -1.69425271e-02f, -8.25546496e-03f, -3.00455578e-02f, 2.01629549e-02f, 1.69832855e-02f, 1.08991452e-02f, -2.45594792e-02f, -3.65081988e-02f, -1.32877287e-03f, -1.89438798e-02f, 1.38145720e-03f, 8.87282379e-03f, -1.84988882e-02f, -4.03847881e-02f, 2.48923805e-02f, 8.87328386e-03f, -1.08501511e-02f, -3.14345621e-02f, -9.15144663e-03f, 1.86776742e-02f, -1.42280925e-02f, -2.78423857e-02f, -8.19602422e-03f, 2.26967186e-02f, -5.15566580e-03f, 1.29446946e-02f, -3.38245779e-02f, 5.95038757e-03f, 2.36233436e-02f, 6.19160384e-03f, 2.07529590e-03f, -1.98384579e-02f, 2.15738975e-02f, 4.41753492e-03f, -1.67048047e-03f, -2.72362735e-02f, -1.36936223e-02f, -9.39065591e-03f, 4.90071205e-03f, -2.35482994e-02f, 5.28336852e-04f, -9.50472988e-03f, 3.15356953e-03f, -4.29895110e-02f, 1.33755468e-02f, 2.72805393e-02f, -1.27199525e-02f, -1.43800275e-02f, -2.34366879e-02f, 2.45022029e-02f, -1.36495018e-02f, -2.54546553e-02f, -3.35458405e-02f, 1.15282387e-02f, -1.26304161e-02f, 1.78187229e-02f, 1.22209527e-02f, -2.06985101e-02f, -2.30040140e-02f, 2.97591835e-03f, -1.53394900e-02f, 1.88353918e-02f, -1.82493795e-02f, -2.00814158e-02f, -2.25876283e-04f, -2.44662222e-02f, -2.99331397e-02f, -7.39192078e-03f, -2.13494059e-02f, -5.79137169e-03f, -2.63012405e-02f, 8.54147039e-03f, 2.90842704e-03f, -1.31359529e-02f, -4.15496044e-02f, -3.49246226e-02f, -2.11816467e-02f, -4.70090332e-03f, 2.09591798e-02f, 2.58538108e-02f, -2.58285273e-02f, -2.70965192e-02f, 2.81333812e-02f, -1.10586677e-02f, 8.13189894e-04f, -4.42994758e-03f, -3.31880860e-02f, 1.05491243e-02f, -3.81249338e-02f, -7.50555750e-03f, -1.55769531e-02f, -2.68369149e-02f, -2.56332159e-02f, 3.88684263e-03f, 1.35058444e-02f, -3.42655852e-02f, -3.49849835e-02f, 4.94752591e-03f, 8.63016862e-03f, -4.12547328e-02f, -3.26520167e-02f, -2.90729757e-03f, 1.21321473e-02f, -1.37356054e-02f, 2.47727782e-02f, 1.55828483e-02f, -1.90318488e-02f, -2.06398163e-02f, 2.68630013e-02f, -3.37133445e-02f, -2.30196267e-02f, -2.82940883e-02f, 2.25562416e-02f, 3.82513925e-03f, -4.30537015e-03f, -2.09506638e-02f, 1.56214638e-02f, -2.43014265e-02f, 1.55867981e-02f, -2.96775494e-02f, 2.49084923e-02f, 5.18759619e-03f, 2.03990415e-02f, -1.34026641e-02f, -9.49487148e-05f, 3.09834024e-03f, -3.59062590e-02f, 8.76682438e-03f, -9.87651758e-03f, -1.52458921e-02f, -1.95888057e-02f, 6.37970259e-03f, -3.24766524e-02f, -2.81602964e-02f, 1.25602223e-02f, 1.46581158e-02f, -3.28388847e-02f, 9.32642911e-03f, -9.84831341e-03f, 3.34581248e-02f, 2.21062638e-02f, 2.24650726e-02f, 1.69528499e-02f, -1.21353529e-02f, -6.16416242e-03f, -4.05700132e-02f, -2.35408116e-02f, -5.12688514e-03f, 2.54365429e-02f, -1.80784669e-02f, -3.97608317e-02f, -1.31705608e-02f, 2.07078718e-02f, 1.07381977e-02f, -4.20742668e-02f, 1.71492212e-02f, -3.88547778e-02f, -3.62487920e-02f, -1.59635339e-02f, -1.70846898e-02f, -1.91792510e-02f, -1.97923575e-02f, 1.10364286e-02f, -2.85679679e-02f, 1.40375290e-02f, -3.07666347e-03f, -4.00195420e-02f, 3.50712053e-02f, 3.14773060e-02f, 9.29210335e-04f, 3.54704969e-02f, -2.16074511e-02f, -1.06753428e-02f, 1.26197478e-02f, -2.56869979e-02f, -1.17116552e-02f, -5.86975832e-03f, -2.67895386e-02f, -1.81047209e-02f, 1.93340741e-02f, -1.63362268e-02f, 2.34497301e-02f, -3.48952636e-02f, -3.15430723e-02f, 9.31167882e-03f, -4.05047499e-02f, 2.25436334e-02f, 1.77073386e-02f, -1.58295035e-02f, 6.05744729e-03f, -5.33422595e-03f, -2.33389088e-03f, 1.60184614e-02f, 5.86261041e-04f, -3.72779369e-02f, 2.68720053e-02f, 3.28755416e-02f, -3.34492847e-02f, -9.85451229e-03f, -1.36688743e-02f, -6.34014606e-04f, -5.86247072e-03f, -2.04223152e-02f, -1.47162210e-02f, -3.57892439e-02f, -2.45736893e-02f, 1.08409515e-02f, 9.65433195e-03f, -3.10042519e-02f, -3.57180834e-02f, -6.12053135e-03f, -2.13041976e-02f, 4.77852998e-03f, -1.62191666e-03f, 1.18501298e-02f, 1.60255376e-02f, -3.71128097e-02f, -2.61203926e-02f, 1.20418929e-02f, -3.09189055e-02f, -1.63914151e-02f, -5.19077468e-04f, 1.26618147e-02f, -9.73047130e-03f, 2.00898834e-02f, -3.16657051e-02f, 2.16078013e-03f, 3.02105770e-03f, 3.19393463e-02f, 2.64416747e-02f, -8.79134890e-03f, -1.41060213e-02f, -8.27919319e-03f, -7.16352230e-03f, -3.59975733e-02f, 1.32557878e-04f, 1.05805686e-02f, -3.94903682e-02f, 9.08576511e-03f, -1.59501210e-02f, -1.31290201e-02f, -3.11573688e-02f, -3.45420986e-02f, 2.83264578e-03f, -3.63081903e-03f, -4.02880087e-02f, -6.59057917e-03f, -2.49805562e-02f, -3.52934450e-02f, 1.28263235e-02f, -1.03425346e-02f, 1.31847002e-02f, -1.83308851e-02f, -1.73352584e-02f, 2.25556605e-02f, 1.00720078e-02f, 1.96010098e-02f, -1.28072854e-02f, -2.86899693e-02f, -5.66980755e-03f, 1.72798727e-02f, 2.58034002e-02f, -2.31141411e-02f, -2.02123430e-02f, -3.80698666e-02f, -1.69474608e-03f, -7.53321825e-03f, -1.53143276e-02f, -3.41591761e-02f, 2.55510919e-02f, -2.85707265e-02f, -9.88010317e-04f, 3.25918831e-02f, 2.58264467e-02f, 3.13919149e-02f, -8.99807177e-03f, -2.25065444e-02f, -3.14713567e-02f, 9.98619571e-03f, -2.02646013e-02f, -2.65757330e-02f, -1.12010911e-03f, 3.07030715e-02f, 1.72970481e-02f, -7.03455694e-03f, -2.69139931e-02f, 6.63174200e-04f, -6.01548841e-03f, 1.30415605e-02f, -1.72947384e-02f, 2.95649888e-03f, 3.87413637e-03f, -4.07918729e-02f, 2.32099481e-02f, -4.32615913e-02f, -2.76818704e-02f, 6.08666101e-03f, 8.53058323e-03f, 2.19736882e-02f, 3.86021659e-03f, 1.02362931e-02f, 1.08850189e-02f, -1.19268429e-02f, -3.23711485e-02f, -4.41902503e-03f, 1.04217269e-02f, 1.25941075e-02f, -1.01328287e-02f, 2.20900364e-02f, 3.53627317e-02f, 6.03547692e-03f, -3.06918714e-02f, -3.72822955e-03f, -1.60583649e-02f, 1.94568262e-02f, 8.90725665e-03f, 1.52069135e-02f, -1.35601265e-02f, -1.01248799e-02f, -7.66772497e-03f, 4.87994682e-03f, 1.49344504e-02f, 9.53952130e-03f, 2.05451855e-03f, 1.79485430e-03f, 6.21674210e-03f, -2.18928810e-02f, -1.26924776e-02f, -1.18759628e-02f, 1.03610223e-02f, 2.69983429e-02f, 2.64194123e-02f, 3.21212746e-02f, 6.33537769e-03f, 2.09988877e-02f, 3.37833874e-02f, 1.61270574e-02f, -2.99177431e-02f, -3.48852426e-02f, -5.98152168e-03f, 1.21607855e-02f, -2.03110538e-02f, -7.70958513e-03f, -3.05512473e-02f, -1.11718476e-02f, 2.50797980e-02f, -2.15945039e-02f, 3.00775580e-02f, -1.95252653e-02f, 7.65933096e-03f, -3.37600373e-02f, -6.03872910e-03f, 2.90757753e-02f, 3.17665972e-02f, -3.11803017e-02f, -1.62222013e-02f, 1.90125629e-02f, -2.19329000e-02f, 5.91304898e-03f, -2.51103938e-02f, -1.81820281e-02f, -1.34840142e-02f, -1.97663903e-03f, 1.36930123e-03f },
    /* row  1 */ { -2.42483169e-02f, 1.12992786e-02f, -1.19067952e-02f, 8.73893499e-03f, -1.67991146e-02f, -4.83457558e-03f, -1.71553027e-02f, -1.71865523e-02f, 2.98232399e-02f, 3.01402174e-02f, 6.26184046e-03f, 3.03398557e-02f, 6.58361707e-03f, -6.66681211e-03f, 6.05028942e-02f, 2.49400325e-02f, 2.62255408e-02f, -6.20055571e-03f, 2.38575079e-02f, -1.06917378e-02f, 3.09906118e-02f, 8.94245133e-03f, 2.56832354e-02f, -2.12005768e-02f, -1.66334808e-02f, 1.65681839e-02f, 1.19882599e-02f, 1.23489872e-02f, 3.49984877e-02f, -4.89114411e-03f, -7.73265958e-03f, -2.39997264e-02f, 6.60438905e-04f, -2.90071163e-02f, -6.51387917e-03f, -1.03736542e-01f, -6.25435710e-02f, -3.98850394e-03f, -2.20618490e-02f, -8.61056056e-03f, -2.44534407e-02f, -3.70214209e-02f, -1.68745350e-02f, 2.78119445e-02f, -7.49083469e-03f, -1.76920800e-03f, -1.23065829e-01f, -8.35610479e-02f, -3.10132280e-02f, -8.51058811e-02f, -1.12454362e-01f, -7.56887272e-02f, 8.03439692e-03f, 2.49662995e-03f, -8.45830888e-03f, -1.58945620e-02f, 3.46218683e-02f, -1.42436754e-02f, -5.17557897e-02f, 5.34346662e-02f, -1.11558130e-02f, -2.16297600e-02f, -2.15979815e-02f, -6.34001161e-04f, -5.12670241e-02f, -3.31009403e-02f, -1.26038074e-01f, -1.28475487e-01f, -1.31992966e-01f, -1.37467414e-01f, -1.85053781e-01f, -1.23210073e-01f, -8.56498927e-02f, -3.63616236e-02f, -3.62257324e-02f, -1.66004412e-02f, -5.58598451e-02f, -5.05344309e-02f, -8.49605426e-02f, -7.42043331e-02f, -9.14613679e-02f, 2.58796737e-02f, -1.33647397e-03f, 1.25534795e-02f, 7.85729289e-03f, -3.48494202e-02f, -2.05878597e-02f, 2.67112050e-02f, 6.05421774e-02f, -4.64939550e-02f, -7.73422495e-02f, -1.07032545e-01f, -2.99635641e-02f, -1.47027418e-01f, -1.16254479e-01f, -1.19943075e-01f, -9.96961370e-02f, -7.97123984e-02f, -1.16839625e-01f, -6.18053563e-02f, -5.72379604e-02f, -3.77183072e-02f, 1.97919887e-02f, -5.85625432e-02f, -2.76844855e-02f, -2.95914020e-02f, -1.06901291e-03f, 5.63403300e-04f, -2.52672639e-02f, -3.73176336e-02f, -1.19519550e-02f, -3.42775173e-02f, -2.14555487e-02f, -2.75449771e-02f, -2.54150163e-02f, -3.76792811e-02f, -9.69092846e-02f, -1.51200920e-01f, -1.11158878e-01f, -1.01851329e-01f, -1.01447403e-01f, -7.31575117e-02f, -8.79554972e-02f, -5.71928397e-02f, -7.14018494e-02f, -3.82515900e-02f, -1.79369412e-02f, 3.09324283e-02f, 5.93925407e-03f, 2.40852833e-02f, 3.56427059e-02f, -2.00747941e-02f, -6.76690019e-04f, 1.78758390e-02f, 2.73237489e-02f, 1.18208807e-02f, 1.04582176e-01f, 1.05573997e-01f, 4.33163196e-02f, -8.16174143e-04f, -1.49792098e-02f, -2.38476489e-02f, -8.70985836e-02f, -9.85314772e-02f, -1.56246245e-01f, -2.28319168e-01f, -1.36823431e-01f, -1.13295808e-01f, -8.40937048e-02f, -8.22307467e-02f, 3.20504233e-02f, 7.13888779e-02f, 2.86670681e-02f, 5.89716248e-02f, 3.30450060e-03f, 1.11945486e-02f, 5.15823290e-02f, 6.94403648e-02f, 1.43359872e-02f, 3.30591425e-02f, 7.34855141e-03f, -9.34556965e-03f, 9.16142762e-03f, -4.34026495e-02f, 3.86328138e-02f, 5.41370660e-02f, 7.07777170e-03f, 4.05219104e-03f, 1.77087151e-02f, -4.34964849e-03f, 9.47064534e-03f, -1.42427161e-01f, -1.87298000e-01f, -1.01804733e-01f, -1.46051884e-01f, -5.01473509e-02f, -2.11602282e-02f, 7.63386860e-03f, 1.07069081e-02f, 6.50830716e-02f, 1.30453333e-01f, 1.07074857e-01f, 1.53984249e-01f, 1.13394700e-01f, 7.06797242e-02f, 1.25037640e-01f, 1.19912706e-01f, 1.04185931e-01f, 7.27994144e-02f, 5.02188802e-02f, -3.52989812e-03f, 4.08106409e-02f, 3.77743170e-02f, 8.28364193e-02f, 7.84215778e-02f, 4.42840299e-03f, 2.11324319e-02f, -8.42143744e-02f, -8.74821469e-02f, -2.20474437e-01f, -2.07913920e-01f, -9.47805196e-02f, -9.29872990e-02f, -8.52942914e-02f, 2.36791801e-02f, 5.88496290e-02f, 1.08532108e-01f, 7.94341490e-02f, 8.54229331e-02f, 8.89452994e-02f, 1.37187704e-01f, 1.09787472e-01f, 1.05400130e-01f, 1.52113095e-01f, 9.39588249e-02f, 9.56581458e-02f, 3.93796377e-02f, 6.89508542e-02f, 2.13279333e-02f, 8.54974613e-02f, 1.33738145e-01f, 1.03746340e-01f, 3.65819968e-02f, -4.89189615e-03f, 4.10225354e-02f, -8.86955336e-02f, -1.11702137e-01f, -1.67122945e-01f, -2.42183879e-01f, -1.24972910e-01f, -4.00290415e-02f, -2.67111808e-02f, 5.71469367e-02f, 7.65837729e-02f, 8.24146643e-02f, 8.74490812e-02f, 5.22197559e-02f, 2.13540811e-02f, 3.86277996e-02f, 7.07318634e-02f, 6.39074817e-02f, 5.34554571e-02f, 7.83279389e-02f, 5.95206171e-02f, 5.84977232e-02f, 7.20131248e-02f, 6.47828951e-02f, 1.37941286e-01f, 2.12574586e-01f, 2.04144716e-01f, 5.01813702e-02f, 2.04704944e-02f, -6.53752685e-02f, -8.48388895e-02f, -7.18997493e-02f, -1.38211489e-01f, -2.35953286e-01f, -1.04792275e-01f, 1.75934769e-02f, -7.55822146e-03f, 4.64184172e-02f, 9.87751931e-02f, 1.02632888e-01f, 4.79846410e-02f, 5.11372872e-02f, -2.50087981e-03f, -2.82651596e-02f, -8.74079540e-02f, -2.54386012e-03f, 3.16347964e-02f, 9.44424123e-02f, 4.26431447e-02f, 1.31489635e-02f, 3.69228125e-02f, 1.56488959e-02f, 1.29606828e-01f, 3.26825351e-01f, 2.58039415e-01f, 1.47122249e-01f, 2.84372233e-02f, -2.09444389e-02f, -1.36579856e-01f, -1.05198056e-01f, -1.52512819e-01f, -1.10019848e-01f, -4.25066389e-02f, 5.93649559e-02f, 7.32938349e-02f, 8.29685032e-02f, 5.98769560e-02f, 9.41733047e-02f, 7.05346242e-02f, 7.25689158e-02f, -6.89251162e-03f, -5.17393388e-02f, -3.74521762e-02f, -4.04739985e-03f, 3.07795499e-02f, 2.37460379e-02f, -6.13006297e-03f, 1.89124292e-03f, 4.73368727e-02f, 6.11870103e-02f, 1.86537057e-01f, 2.64743626e-01f, 3.33148390e-01f, 1.84162185e-01f, 5.30012064e-02f, -3.94648723e-02f, -5.66259734e-02f, -1.13940455e-01f, -1.17674634e-01f, -8.00719261e-02f, 1.35866208e-02f, 8.21495727e-02f, 6.94392100e-02f, 1.05808489e-01f, 6.13045990e-02f, 5.95765673e-02f, 5.51603734e-03f, 4.66603553e-03f, 4.16815504e-02f, 4.59549017e-02f, -1.20631419e-02f, -1.40396496e-02f, 1.81042252e-03f, 1.30936978e-02f, -1.72879603e-02f, 2.32853927e-02f, 5.19507006e-02f, 4.68239337e-02f, 9.79922339e-02f, 1.37192801e-01f, 2.24886850e-01f, 2.32647836e-01f, 1.15564819e-02f, -3.17885205e-02f, -3.52257788e-02f, -1.33015037e-01f, -6.85732216e-02f, -6.10722753e-04f, 1.25955671e-01f, 1.48708493e-01f, 4.61960882e-02f, 4.97543477e-02f, -2.00463273e-02f, 2.75660008e-02f, -1.17938947e-02f, -7.13246083e-03f, 5.96709512e-02f, 2.45278515e-02f, -1.22217489e-02f, -6.83094189e-02f, -2.50214506e-02f, 1.32681988e-02f, 6.47090822e-02f, 6.86344132e-02f, 5.80962701e-03f, 1.27458703e-02f, 7.46617978e-03f, -5.37576862e-02f, 5.37504181e-02f, 9.71280411e-02f, -4.65767756e-02f, -1.08424816e-02f, -4.20561135e-02f, -1.12933151e-01f, 6.53544907e-03f, 6.71437681e-02f, 6.25433102e-02f, 9.54932198e-02f, 8.20139945e-02f, 4.06629144e-04f, 1.85292568e-02f, 6.88658804e-02f, 5.38953468e-02f, 3.46489623e-02f, 9.37288553e-02f, -4.53360286e-03f, -3.59624960e-02f, -7.82356486e-02f, -8.89107883e-02f, -3.55797634e-02f, 4.43409979e-02f, 9.35357139e-02f, 3.79385985e-02f, -2.10446641e-02f, -7.00998232e-02f, -6.25463128e-02f, -6.38085455e-02f, 2.00835112e-02f, 1.03592630e-02f, 6.90381527e-02f, -3.68941086e-03f, -5.67061193e-02f, 1.53767439e-02f, 8.07247013e-02f, 9.72003862e-02f, 6.40772730e-02f, 9.67249945e-02f, 4.35272977e-02f, 3.52894887e-02f, 6.05372824e-02f, 6.57239333e-02f, 7.32776895e-02f, 8.76893289e-03f, -3.46419141e-02f, -1.22708768e-01f, -1.37905344e-01f, -2.21515410e-02f, 3.23976477e-04f, 1.63727403e-02f, 1.24221900e-02f, -3.15223308e-03f, 2.12598150e-03f, -1.25792809e-02f, 3.24503928e-02f, -1.28003927e-02f, 1.04297390e-02f, 7.34238653e-03f, 4.36187163e-02f, -6.82403613e-03f, -8.98731649e-02f, -3.27699520e-02f, 7.25655258e-02f, 7.27993548e-02f, 5.55729792e-02f, 4.93244566e-02f, 6.75029606e-02f, 3.04183867e-02f, 4.44450080e-02f, 1.21432059e-02f, 1.11872926e-02f, -3.59283574e-02f, -1.43976822e-01f, -1.11450061e-01f, -1.18623547e-01f, -3.21286730e-02f, 5.21817617e-02f, 9.97291133e-03f, 2.00225748e-02f, -3.54143768e-03f, -2.69337054e-02f, -9.28535499e-03f, 5.17258085e-02f, 1.27468631e-03f, 1.66094825e-02f, -9.26655009e-02f, -1.68374609e-02f, -7.10312873e-02f, -1.51090026e-01f, -1.23392995e-02f, 5.93637861e-02f, 5.18604368e-02f, 4.30618227e-02f, 3.11547369e-02f, 4.09120098e-02f, 2.03205198e-02f, 6.88848868e-02f, -1.82674751e-02f, -8.91136657e-03f, -1.13779739e-01f, -1.47793680e-01f, -9.89598483e-02f, -7.25472299e-03f, 2.73834914e-02f, 3.34455930e-02f, -7.01710535e-03f, -2.99755624e-03f, -3.80540565e-02f, 1.97531432e-02f, 6.30182773e-02f, -1.24104656e-02f, -6.18594810e-02f, -7.26426095e-02f, 2.52297521e-03f, 1.97703280e-02f, -5.70649840e-02f, -1.52465120e-01f, -4.20443192e-02f, 3.46556790e-02f, 9.30907428e-02f, 9.67118144e-02f, 7.56462365e-02f, 6.61025383e-03f, 3.19741741e-02f, 3.11111622e-02f, 2.26907730e-02f, -3.67871597e-02f, -1.29132211e-01f, -1.24248967e-01f, -4.62040044e-02f, 6.24509715e-03f, 7.29810447e-02f, 3.97306532e-02f, 3.66211943e-02f, 4.42438200e-02f, -7.06627080e-03f, -4.79178816e-05f, 3.87739092e-02f, 5.09196445e-02f, -9.15980041e-02f, -8.36730897e-02f, 3.12921824e-03f, 2.68693338e-03f, -5.31381965e-02f, -1.79143175e-01f, -9.60071608e-02f, 5.66713288e-02f, 1.17449842e-01f, 1.68476835e-01f, 1.06348276e-01f, 7.81732053e-02f, 8.97779688e-02f, 1.03591345e-01f, 3.06551419e-02f, -9.56484899e-02f, -4.56477106e-02f, -1.75499376e-02f, 3.47599275e-02f, 3.42637599e-02f, 3.08758374e-02f, -3.49567682e-02f, -1.86249912e-02f, 2.69383918e-02f, -1.95066221e-02f, -5.78780193e-03f, 6.82528764e-02f, 2.20840015e-02f, -7.40412921e-02f, -6.65401071e-02f, -1.31000578e-01f, -2.45095859e-03f, 3.93472932e-04f, 2.50852890e-02f, -8.05937350e-02f, 6.74643442e-02f, 8.97246227e-02f, 1.22778371e-01f, 8.28198791e-02f, 8.89102295e-02f, 3.18449996e-02f, 2.41735876e-02f, 2.32060906e-02f, 3.03733442e-02f, -3.11984103e-02f, -2.78630834e-02f, -2.13174429e-02f, -4.98031415e-02f, -9.17711016e-03f, -2.64629275e-02f, 3.42671797e-02f, 5.64722121e-02f, 1.20873637e-02f, 2.91958149e-03f, 6.59611002e-02f, 1.05358399e-01f, -7.76421279e-02f, -6.48646951e-02f, -6.60742447e-02f, 2.34098881e-02f, 5.74070401e-02f, 2.61232872e-02f, -7.25812688e-02f, 3.16336825e-02f, 8.01124796e-02f, 5.08919023e-02f, 1.61050614e-02f, 7.10088909e-02f, 4.44756523e-02f, -9.48009640e-03f, 2.30957707e-03f, -2.57150009e-02f, -3.19802873e-02f, -3.90021987e-02f, -4.65603471e-02f, -1.38506638e-02f, -3.82140689e-02f, -3.24395485e-02f, -2.95915566e-02f, -1.04075829e-02f, -3.03620137e-02f, 9.65170190e-02f, 3.58119160e-02f, 5.97267821e-02f, -6.38806215e-03f, -6.97601438e-02f, 3.91962789e-02f, -2.91221384e-02f, -4.43573296e-02f, -6.41925186e-02f, -8.41788854e-03f, -3.39981029e-03f, 4.88171875e-02f, 6.32272884e-02f, 7.28092119e-02f, 5.58552146e-02f, 2.06534564e-02f, 3.89967449e-02f, 3.06321029e-02f, 4.42782883e-04f, -5.91850886e-03f, -2.61962246e-02f, -5.07956259e-02f, -1.59167945e-02f, -2.65374500e-02f, -3.76091450e-02f, -7.10848793e-02f, -1.19076925e-03f, 3.86819318e-02f, 5.93886748e-02f, 7.92170465e-02f, 7.87619874e-02f, 6.08944669e-02f, -1.58583522e-02f, 4.78953198e-02f, -2.89314482e-02f, -4.13886309e-02f, -9.50219333e-02f, -2.63319723e-02f, -1.28987273e-02f, -9.37808231e-02f, 2.33725179e-02f, 5.72574586e-02f, 6.58622533e-02f, 3.74063849e-02f, 9.24201123e-03f, 1.67414807e-02f, 2.53342930e-02f, 5.08137122e-02f, 3.76858674e-02f, 1.36113595e-02f, 2.79562566e-02f, -1.08150896e-02f, -1.50539139e-02f, -6.04344234e-02f, -3.55843711e-03f, 3.76954786e-02f, 6.78616613e-02f, 1.95006505e-01f, 8.66129100e-02f, 5.47053292e-02f, -1.40633797e-02f, 2.54201274e-02f, -2.56366227e-02f, -3.43555808e-02f, 1.41752353e-02f, -1.31016783e-02f, -3.56115215e-02f, -4.00839150e-02f, -8.40122253e-02f, 2.85198889e-03f, 7.20232651e-02f, 8.51836205e-02f, 7.28862360e-02f, 1.14610724e-01f, 6.04276881e-02f, 7.52373338e-02f, 7.93735087e-02f, 5.30530438e-02f, 3.37215997e-02f, 1.14279531e-03f, -4.61181402e-02f, -5.80160543e-02f, 3.26612592e-02f, 1.45827252e-02f, 1.09512709e-01f, 1.47181481e-01f, 9.72011760e-02f, -9.95528977e-03f, -3.92281711e-02f, -2.27815211e-02f, -1.83339119e-02f, 1.51496194e-02f, -3.54633331e-02f, -4.56241425e-03f, -7.25535452e-02f, -1.21062100e-01f, -8.00635889e-02f, -2.36890707e-02f, 3.19177508e-02f, 5.96249886e-02f, 4.61845659e-02f, 6.99646249e-02f, 7.16206878e-02f, 1.04889341e-01f, 7.40070716e-02f, 8.65910426e-02f, 6.46507517e-02f, 6.49739802e-02f, 6.80327266e-02f, 7.42068514e-02f, 6.46785572e-02f, 9.66366380e-02f, 1.47398904e-01f, 1.67629227e-01f, 7.01745152e-02f, -4.41563018e-02f, -5.30515797e-02f, 1.75604001e-02f, -2.91504022e-02f, -2.32348833e-02f, 5.28746508e-02f, -2.01141695e-03f, -5.26706651e-02f, 6.89100474e-03f, -4.56322432e-02f, -6.42217249e-02f, -9.65613276e-02f, -6.89586550e-02f, -6.11121394e-02f, -2.69821845e-02f, 1.19762374e-02f, 5.66335283e-02f, 4.98702116e-02f, 7.25703016e-02f, 7.85595402e-02f, 1.11495070e-01f, 6.15597740e-02f, 1.11564122e-01f, 1.37068182e-01f, 1.49500042e-01f, 1.54015899e-01f, 1.68719247e-01f, 1.25861123e-01f, -1.04976986e-02f, -6.28288239e-02f, -1.30713880e-02f, 3.17868255e-02f, 3.11360471e-02f, 1.96063370e-02f, 1.12873875e-02f, 9.30964500e-02f, 2.02642307e-02f, 5.04106060e-02f, -3.95579077e-03f, -5.36696091e-02f, -3.87253314e-02f, 5.99456951e-03f, 2.53158640e-02f, 7.98666552e-02f, 6.57003671e-02f, 5.73728271e-02f, 8.45450535e-03f, -6.03655213e-03f, 1.73147582e-02f, 2.46823039e-02f, 2.04162709e-02f, 6.14453517e-02f, 4.81611975e-02f, 4.37426157e-02f, 1.32051967e-02f, 1.19547471e-02f, -3.59869041e-02f, -1.84636638e-02f, 2.36630179e-02f, 2.08192430e-02f, 1.53831393e-02f, 2.83135734e-02f, -1.40613187e-02f, -1.02589473e-01f, -1.14541657e-01f, -6.49139285e-02f, 9.00864508e-03f, -5.46303252e-03f, -3.68303582e-02f, 1.20031461e-02f, 4.43473794e-02f, -1.19177401e-02f, -7.79015347e-02f, 8.21275171e-03f, -2.62587946e-02f, -2.42653098e-02f, -9.56515446e-02f, -1.23799788e-02f, -4.01832946e-02f, 1.23270229e-02f, -2.65221950e-02f, -2.60887127e-02f, -1.96160786e-02f, -2.18340307e-02f, -8.51359591e-03f, -7.01355189e-03f, -2.36588214e-02f },
    /* row  2 */ { 3.24502699e-02f, 1.74862929e-02f, 1.73303485e-03f, -1.74015984e-02f, 1.52186677e-03f, -3.24802659e-02f, -1.62820648e-02f, -1.85091048e-04f, -8.10583122e-03f, 3.00814100e-02f, 2.36264616e-02f, 2.47829594e-02f, 1.46641284e-02f, 6.41841954e-03f, 5.52105121e-02f, 3.69812176e-03f, 3.36376466e-02f, -7.87645951e-03f, -3.07964608e-02f, -3.13525274e-03f, -6.88340515e-03f, -1.35613047e-02f, 4.87096235e-03f, -1.53279491e-02f, 1.75811201e-02f, 7.80751929e-03f, -6.90438040e-03f, -9.20531712e-03f, -2.86496002e-02f, -1.11368522e-02f, 3.17060910e-02f, 7.11785257e-03f, 2.02217363e-02f, -3.31153162e-02f, -2.65953094e-02f, -1.67492796e-02f, -6.26320466e-02f, -6.24517798e-02f, -2.83639431e-02f, 3.68884802e-02f, -2.92379726e-02f, 2.89922231e-03f, -3.21883038e-02f, 1.59506835e-02f, 2.76393872e-02f, -2.08107904e-02f, -7.58794025e-02f, -5.51175997e-02f, -4.31923606e-02f, -2.50439886e-02f, 7.79338134e-03f, 6.30559027e-03f, 8.79940391e-03f, 6.59203902e-03f, 3.21840122e-03f, 1.34261847e-02f, -2.88986880e-02f, 1.61879212e-02f, -1.55423731e-02f, -3.15742404e-03f, 2.16558427e-02f, -4.30847295e-02f, -5.13246730e-02f, 8.24266300e-03f, -3.14396247e-02f, -2.57571060e-02f, -4.24057133e-02f, -5.69570772e-02f, -3.48691456e-02f, 1.56422574e-02f, -6.53438047e-02f, 3.70203890e-02f, 2.00437251e-02f, -3.18974294e-02f, -2.33507920e-02f, -1.23255365e-02f, -1.48048569e-02f, -6.98492303e-02f, -7.33756572e-02f, -8.10059458e-02f, -3.31172384e-02f, 1.97036322e-02f, -1.41292810e-04f, -2.92225797e-02f, -1.33450255e-02f, -3.54581177e-02f, 3.80141884e-02f, -1.19159678e-02f, 9.49836615e-03f, -6.38279691e-02f, -1.16398521e-01f, -9.98832509e-02f, -3.16299731e-03f, -3.23755406e-02f, -4.28815521e-02f, -7.13528842e-02f, 2.23253611e-02f, 1.99243613e-02f, -3.32649704e-03f, 3.23544964e-02f, 3.05284951e-02f, 1.33642750e-02f, -3.26198861e-02f, -2.31445115e-02f, -3.61405462e-02f, -4.01199237e-02f, -3.97440009e-02f, -7.01148510e-02f, -5.50427698e-02f, 3.60568576e-02f, 7.95724709e-03f, -1.99384578e-02f, 3.40373702e-02f, -1.24770291e-02f, 5.02948500e-02f, -1.90796293e-02f, -1.12224095e-01f, -1.19973861e-01f, -8.39935169e-02f, -8.70848522e-02f, -3.13540665e-03f, 2.41255425e-02f, 6.57683536e-02f, 4.40066159e-02f, 9.02552977e-02f, 9.62838531e-02f, 1.43013462e-01f, 1.48996383e-01f, 1.11328654e-01f, 1.13688849e-01f, 7.80944899e-02f, 6.59517199e-02f, -5.66423684e-03f, 5.04145995e-02f, -2.50133667e-02f, -2.37428322e-02f, -4.24210876e-02f, 1.59986969e-02f, 7.29383677e-02f, -1.87866855e-02f, 1.91664807e-02f, -2.91490927e-03f, 5.06448373e-02f, -3.05758673e-03f, -9.15453956e-02f, -1.46900892e-01f, -8.94710198e-02f, -1.45310797e-02f, -4.76132259e-02f, -1.42229600e-02f, 1.94707345e-02f, 5.14091551e-02f, 2.96169184e-02f, 8.17595050e-02f, 8.91283974e-02f, 5.42691499e-02f, 9.73291770e-02f, 1.13174245e-01f, 5.16197905e-02f, 6.18467182e-02f, 7.41095096e-02f, 1.25717968e-01f, 1.13542490e-01f, 3.35460640e-02f, 3.37939039e-02f, 4.58265170e-02f, 5.49593531e-02f, 1.08420746e-02f, 1.87033899e-02f, -1.51202139e-02f, -3.15815806e-02f, -8.29786733e-02f, -9.36815739e-02f, -5.29421046e-02f, -6.15085848e-02f, -1.53786782e-03f, -7.59968767e-03f, -4.40630615e-02f, -4.41087969e-03f, 4.76296879e-02f, 2.25898027e-02f, 5.24133109e-02f, 3.90340239e-02f, 2.11867876e-02f, 3.86248305e-02f, -1.82223804e-02f, 5.92698902e-02f, 9.19373054e-03f, 2.56881528e-02f, 5.51795065e-02f, 1.05139360e-01f, 8.85624960e-02f, 4.73769717e-02f, 9.24086273e-02f, 1.02047687e-02f, -9.68830101e-03f, -3.57257612e-02f, 1.63783003e-02f, -1.01267390e-01f, -1.16842382e-01f, -5.88851497e-02f, -4.60425243e-02f, -3.95058244e-02f, -1.05916345e-02f, 2.47594155e-02f, 6.51195971e-03f, 1.39421774e-02f, 3.41685265e-02f, 4.80752513e-02f, -1.87957510e-02f, 3.70295660e-04f, -1.50794105e-03f, -4.71291644e-03f, 3.77799477e-03f, 6.45274445e-02f, 3.60891744e-02f, 3.57989669e-02f, 3.26211862e-02f, 3.83469127e-02f, 1.42595306e-01f, 8.67103711e-02f, 1.15566909e-01f, -1.14540639e-03f, 2.22448632e-03f, 3.33372131e-02f, -3.25456336e-02f, -1.24284010e-02f, -7.15503586e-04f, -2.61698198e-02f, -1.03507778e-02f, 3.64027098e-02f, -5.82425913e-04f, 3.39859463e-02f, 1.99499521e-02f, 4.56652790e-02f, 2.64594443e-02f, 4.95823845e-02f, 8.20489824e-02f, 3.51057537e-02f, -1.20651713e-02f, 7.47322813e-02f, 9.87955630e-02f, 4.51362282e-02f, 1.08377181e-01f, 5.97965717e-02f, 7.25205317e-02f, 6.96862638e-02f, 1.32224873e-01f, 1.27155811e-01f, 1.03190288e-01f, 7.41495043e-02f, 6.80967048e-02f, -6.92757666e-02f, -1.56970695e-01f, -3.80196609e-02f, 1.08789783e-02f, -1.05824266e-02f, -3.68940681e-02f, 8.16218555e-03f, 4.62555028e-02f, 5.12605906e-02f, 5.84593713e-02f, 2.56375410e-02f, 8.83547664e-02f, 2.27896366e-02f, 3.57353836e-02f, 2.81764138e-02f, 2.55675036e-02f, -1.35522159e-02f, 7.60285184e-02f, 5.97656853e-02f, 4.51745316e-02f, 1.39544895e-02f, 4.85079139e-02f, 5.52450456e-02f, 9.30902287e-02f, 2.33028948e-01f, 2.12806910e-01f, 1.51581690e-01f, -3.23041864e-02f, -4.53977585e-02f, -5.35609871e-02f, -1.10455928e-02f, -2.78207683e-03f, -7.58213922e-03f, -3.41050103e-02f, 1.72245093e-02f, 3.83431315e-02f, 2.97326799e-02f, 2.38301177e-02f, 4.78951447e-02f, 5.24298698e-02f, 1.14159629e-01f, 9.62340832e-02f, 8.38092715e-02f, 4.36633602e-02f, -2.68902257e-02f, 3.29454220e-03f, 7.25501683e-03f, 4.75485716e-03f, 2.00753380e-02f, 1.11448765e-02f, 6.22709701e-03f, 1.01811677e-01f, 1.91784069e-01f, 1.42094836e-01f, 1.33331805e-01f, 5.29096611e-02f, -9.63914916e-02f, -4.77928631e-02f, -3.03090587e-02f, -2.26225667e-02f, -5.02731046e-03f, -7.62543175e-03f, 1.11377938e-02f, -1.00993142e-02f, -1.63473245e-02f, -2.71074250e-02f, -1.78195350e-02f, 8.34745634e-03f, 1.70408357e-02f, 7.58835375e-02f, 8.87998790e-02f, 2.94013061e-02f, -7.88197666e-02f, -5.77203222e-02f, -3.90162021e-02f, -1.54343685e-02f, -5.55436686e-02f, -1.48133049e-02f, -5.11854328e-02f, 1.87742300e-02f, 1.92122474e-01f, 2.09495276e-01f, 1.74546435e-01f, 1.45130716e-02f, -6.91362694e-02f, -8.31963494e-03f, -7.38944933e-02f, 1.57228149e-02f, -8.59197527e-02f, -1.12330467e-02f, 8.80778022e-03f, -4.92500588e-02f, -3.02145425e-02f, -4.73977439e-02f, -2.15818956e-02f, -4.76447903e-02f, 5.94708249e-02f, 1.37149185e-01f, 4.73602414e-02f, -4.14307155e-02f, -9.34039354e-02f, -1.16320468e-01f, -9.10501778e-02f, -4.48941365e-02f, -4.79700118e-02f, -3.33300384e-04f, -1.22230463e-01f, -1.83420330e-02f, 3.75003256e-02f, 4.46529090e-02f, 1.05025478e-01f, -1.94363426e-02f, 5.57791777e-02f, 1.82015076e-02f, -3.33215855e-02f, -4.61073918e-03f, -9.45913047e-02f, -6.57782778e-02f, -8.67089704e-02f, -6.97217137e-02f, -2.36984510e-02f, -1.39342071e-02f, -4.72421274e-02f, -7.14803580e-03f, 8.21334422e-02f, 1.12949163e-01f, 6.84199855e-02f, -3.14430557e-02f, -9.97443497e-02f, -7.39600733e-02f, -2.82614790e-02f, -4.95444685e-02f, -7.91689754e-02f, -6.75522164e-02f, -1.25941560e-01f, -8.30575973e-02f, -5.33931777e-02f, 1.74309928e-02f, 1.19449317e-01f, 6.27359673e-02f, 3.97676341e-02f, -6.88385442e-02f, -3.49911265e-02f, -4.80614714e-02f, -8.72385204e-02f, -6.85303062e-02f, -5.27467132e-02f, -6.48132488e-02f, -5.26127368e-02f, -3.97258662e-02f, -4.84363027e-02f, -3.03602852e-02f, 7.02555850e-02f, 5.72607554e-02f, 6.17465675e-02f, -7.31296139e-03f, -1.09496541e-01f, -4.15688753e-02f, -6.63155764e-02f, -1.40727848e-01f, -1.06232136e-01f, -1.10205740e-01f, -1.42024770e-01f, -8.10046121e-02f, -3.90516855e-02f, -1.00293020e-02f, 1.28043994e-01f, 4.86869439e-02f, 2.55051963e-02f, -6.75415471e-02f, -2.99322829e-02f, -7.67669156e-02f, -1.23093098e-01f, -6.58684000e-02f, -7.22560063e-02f, -7.15117827e-02f, -2.14385111e-02f, -4.69867140e-03f, -2.37757433e-03f, -2.92848097e-03f, 8.64009038e-02f, 6.12887293e-02f, 8.96180123e-02f, -5.58558069e-02f, -4.22815382e-02f, -7.33612552e-02f, -9.90841985e-02f, -1.03466012e-01f, -1.31905273e-01f, -1.46778971e-01f, -1.79482207e-01f, -1.14935316e-01f, 5.25525808e-02f, 3.27008478e-02f, 8.63367468e-02f, 5.89819141e-02f, -2.84499401e-04f, 1.13631261e-03f, -3.33343111e-02f, 1.22262891e-02f, -7.37503916e-02f, -3.41808274e-02f, -8.55069160e-02f, -6.76581040e-02f, -8.03959072e-02f, -4.71840613e-02f, -1.48180509e-02f, 1.44681931e-02f, 2.36113369e-03f, 3.55386846e-02f, 1.28166582e-02f, -2.92215105e-02f, -9.01006237e-02f, -9.06607807e-02f, -6.36744201e-02f, -1.08067825e-01f, -9.04103145e-02f, -1.12645939e-01f, -5.52786961e-02f, 3.03203017e-02f, 5.59668764e-02f, 1.99570097e-02f, 6.70979023e-02f, 2.94701084e-02f, -1.08658895e-03f, -3.21466923e-02f, -9.34599414e-02f, 6.46362007e-02f, 4.83495789e-03f, -2.67830044e-02f, 6.76843862e-04f, -8.13259929e-02f, -9.30831283e-02f, -2.16981843e-02f, 1.98110361e-02f, -3.50506566e-02f, 2.05234308e-02f, -7.34536443e-03f, -1.68411788e-02f, -8.81130248e-02f, -4.25657853e-02f, -3.08589302e-02f, -9.36131403e-02f, -8.25572014e-02f, -4.88882065e-02f, -2.43242625e-02f, -3.25414799e-02f, 1.67597458e-02f, 2.73945238e-02f, -5.85601516e-02f, -1.17265731e-02f, -8.56782310e-03f, -6.10710122e-02f, 9.60856117e-03f, -1.25870079e-01f, -5.98833598e-02f, 1.70505866e-02f, -2.39656772e-02f, 1.98597256e-02f, -1.86373219e-02f, 4.68251854e-03f, 4.29442003e-02f, 3.14927176e-02f, -3.88908759e-02f, -2.13504340e-02f, -4.99358997e-02f, -4.80212495e-02f, -5.68396598e-02f, -1.29991984e-02f, -3.98595706e-02f, -6.04826864e-03f, -3.29236239e-02f, -3.66283916e-02f, -1.32538509e-02f, 3.47509757e-02f, 1.00127593e-01f, 1.03271320e-01f, 5.29469140e-02f, -4.90824915e-02f, 2.48936415e-02f, 4.13422212e-02f, 1.22352960e-02f, 8.86466121e-04f, -4.11430001e-02f, 3.33555564e-02f, 5.74075431e-02f, 3.93184610e-02f, 4.62505631e-02f, 1.32557396e-02f, 2.56055053e-02f, 2.99261063e-02f, -3.72005366e-02f, -4.35195565e-02f, -1.47538353e-02f, -4.63219658e-02f, 1.98266134e-02f, 1.33022228e-02f, 1.79749001e-02f, 7.86033869e-02f, 3.62862274e-02f, 7.37949461e-02f, 1.10076383e-01f, 1.54202163e-01f, 1.97181225e-01f, 1.23338990e-01f, 5.82926609e-02f, 4.52465564e-03f, 1.15555704e-01f, -1.28352698e-02f, 1.19004482e-02f, 1.52950995e-02f, -3.35714854e-02f, 3.90401334e-02f, 7.12412670e-02f, 7.86654353e-02f, 5.62050268e-02f, 4.09366675e-02f, 7.40496665e-02f, 4.20653224e-02f, 4.70060445e-02f, 4.31585573e-02f, 4.82214848e-03f, 1.81972962e-02f, 5.81359453e-02f, 9.86952782e-02f, 1.19576044e-01f, 1.04573332e-01f, 1.28352448e-01f, 1.27707943e-01f, 1.34789780e-01f, 2.03455210e-01f, 1.87451676e-01f, 6.78003058e-02f, 6.93157315e-02f, 4.82073501e-02f, 4.99128401e-02f, -5.73205529e-03f, -2.29583420e-02f, 5.99589050e-02f, 8.31616744e-02f, 1.09559618e-01f, 1.41938254e-01f, 1.91998750e-01f, 1.58315197e-01f, 7.22160116e-02f, 3.53012905e-02f, 2.81900056e-02f, 4.79861274e-02f, 9.70105827e-03f, 5.98222204e-02f, 6.88864589e-02f, 7.52235577e-02f, 8.25374052e-02f, 1.23638593e-01f, 1.26866147e-01f, 1.36105001e-01f, 1.74585268e-01f, 1.79478526e-01f, 2.04717875e-01f, 1.48604810e-01f, 5.41890934e-02f, 6.79631159e-02f, -3.22149671e-03f, -3.06593394e-03f, -1.20501826e-02f, -1.56934951e-02f, 6.97267875e-02f, 8.42952728e-02f, 6.94606304e-02f, 1.53376341e-01f, 1.82882786e-01f, 1.22704990e-01f, 6.55787364e-02f, 7.15720356e-02f, 5.52603044e-02f, 3.30422558e-02f, 7.16680735e-02f, 7.88151845e-02f, 1.20325930e-01f, 6.40579611e-02f, 1.01395875e-01f, 8.95570293e-02f, 1.41333207e-01f, 1.17521308e-01f, 1.38662204e-01f, 7.61492997e-02f, 1.34506837e-01f, 1.10052720e-01f, 6.05375804e-02f, 2.48301681e-02f, 4.76999208e-02f, 1.97225921e-02f, -2.10045874e-02f, 4.45633382e-03f, 3.03729456e-02f, -4.02837768e-02f, -1.77907664e-02f, 4.13639359e-02f, 7.32265064e-04f, 4.89525758e-02f, 1.18032001e-01f, 7.69964010e-02f, 1.20195784e-01f, 1.04317129e-01f, 1.12928882e-01f, 1.31828308e-01f, 1.32198215e-01f, 1.06607743e-01f, 1.39772609e-01f, 1.62925586e-01f, 7.10496604e-02f, 1.41722009e-01f, 1.20780826e-01f, 5.28750531e-02f, 8.92144218e-02f, 1.14615761e-01f, 6.31728098e-02f, 2.68636178e-02f, 4.96975146e-02f, -3.47811133e-02f, 2.57364661e-02f, 5.12472540e-03f, 5.55744693e-02f, -2.46050470e-02f, -1.29788816e-01f, -1.46749720e-01f, -8.36330503e-02f, -9.30497125e-02f, 1.47832735e-02f, 7.47131482e-02f, 7.57553205e-02f, 7.58492500e-02f, 1.22868352e-01f, 1.01872966e-01f, 1.26981616e-01f, 1.24868535e-01f, 7.61345178e-02f, 7.07816258e-02f, 8.65721479e-02f, 6.69230744e-02f, 4.89894934e-02f, 3.66037735e-03f, -1.93870123e-02f, 3.78189310e-02f, 8.44278038e-02f, 4.25337702e-02f, 4.80388738e-02f, 1.28853880e-02f, -9.10766236e-03f, 1.86101645e-02f, 4.52718623e-02f, -2.77654938e-02f, -8.21492895e-02f, -1.70671359e-01f, -1.37383282e-01f, -1.43292770e-01f, -1.09123535e-01f, -1.02549046e-01f, -1.04509771e-01f, -7.74339363e-02f, -7.11913258e-02f, 6.55610906e-03f, -5.22227287e-02f, 3.36852111e-02f, 5.93270846e-02f, 1.00224791e-03f, 3.04447543e-02f, -1.24554560e-02f, -8.56170654e-02f, -5.10323346e-02f, -2.18017753e-02f, 4.65640910e-02f, 3.70818749e-02f, 9.74139199e-03f, 3.31572816e-02f, -1.30003318e-02f, 3.46896611e-02f, -3.26503664e-02f, -1.95036493e-02f, -5.44742495e-02f, -4.92701419e-02f, -5.88596165e-02f, -1.52180552e-01f, -9.67325941e-02f, -1.34250820e-01f, -1.82762310e-01f, -1.16567433e-01f, -6.77716061e-02f, -8.55633095e-02f, -7.20950887e-02f, -1.59961820e-01f, -1.24034278e-01f, -8.24014544e-02f, -9.66836363e-02f, -7.52144754e-02f, -4.82855514e-02f, -4.83934470e-02f, -5.52126728e-02f, -2.39582416e-02f, -4.45374101e-02f, -7.69492984e-02f, -4.60138991e-02f, 8.65355879e-03f, -2.19733510e-02f, -1.16024669e-02f, 2.57640332e-03f, -6.84989430e-03f, -3.24784219e-02f, -4.49632145e-02f, -7.23175704e-02f, -5.02638891e-02f, -3.78109291e-02f, -5.89303561e-02f, -1.24434289e-02f, -1.69947790e-03f, -9.79479123e-03f, -3.75687964e-02f, -7.25643262e-02f, -7.74067864e-02f, -6.86803460e-02f, -4.15581502e-02f, -1.46591604e-01f, -1.01564616e-01f, -8.69049951e-02f, -3.15752625e-02f, -9.79034603e-02f, -3.96389924e-02f, -1.56314205e-02f, -3.03664431e-02f, -3.17418799e-02f, -1.30184125e-02f, -1.98326930e-02f },
    /* row  3 */ { 3.32953408e-03f, 1.44736655e-02f, 1.41864978e-02f, -3.40422317e-02f, -3.23704891e-02f, -2.82918960e-02f, 2.67447568e-02f, 8.34115222e-03f, 2.47259662e-02f, -2.97305360e-03f, 2.63616666e-02f, 4.46064025e-03f, -1.88073638e-04f, 4.99069924e-03f, 6.20249473e-02f, 4.04711068e-03f, 4.77361307e-03f, -2.80706845e-02f, -3.20861563e-02f, -2.03846879e-02f, 2.02436298e-02f, 1.62676200e-02f, -3.12672742e-02f, 1.64079629e-02f, -3.41343135e-03f, -1.46161579e-02f, -2.76485644e-02f, -4.91739996e-03f, -2.65506767e-02f, -3.01767737e-02f, 3.32019366e-02f, -2.89535839e-02f, -1.89741440e-02f, 6.90869102e-03f, 4.90343980e-02f, 4.97302637e-02f, -2.53821276e-02f, -6.22032806e-02f, 2.67276950e-02f, 7.10229576e-02f, 6.42501786e-02f, 5.94315641e-02f, -2.66598281e-03f, 5.66253923e-02f, 6.77303299e-02f, 7.50677288e-02f, -1.83182899e-02f, 6.48542680e-03f, -1.53219700e-02f, 2.38167308e-03f, 5.54022007e-03f, 2.81936172e-02f, -3.29534672e-02f, 2.03379616e-02f, -1.04044247e-02f, -3.70014086e-03f, 1.51127577e-02f, 7.80024379e-03f, -1.31635536e-02f, -1.80637080e-03f, 3.80089395e-02f, -2.29379628e-02f, 3.21143493e-02f, -6.68031909e-03f, -1.41456043e-02f, 3.18846591e-02f, 1.77931935e-02f, 6.10151105e-02f, 6.78041279e-02f, 1.21791856e-02f, 3.36890528e-03f, -8.49109609e-03f, -4.30232622e-02f, -6.74264282e-02f, -1.07543439e-01f, -1.50223732e-01f, -8.41353312e-02f, -5.79946041e-02f, -7.27136359e-02f, -4.67751501e-03f, 7.96672888e-03f, 1.25868991e-02f, 3.47138681e-02f, 1.11240335e-02f, 1.71511434e-02f, -1.42845139e-03f, 1.60944555e-02f, 3.38590704e-02f, -5.31545840e-02f, -3.83278280e-02f, -3.33986357e-02f, -6.51058101e-04f, 5.72331809e-02f, 1.15780823e-01f, 1.01203047e-01f, 1.19810052e-01f, 1.75757244e-01f, 1.44863337e-01f, 8.70545208e-02f, 2.97702719e-02f, 1.16046052e-02f, -3.84507142e-02f, -1.01988487e-01f, -2.02262580e-01f, -1.81488037e-01f, -2.04502195e-01f, -1.89833686e-01f, -1.15990736e-01f, -5.19979037e-02f, 2.04392411e-02f, -9.62340087e-03f, -3.24541703e-03f, 5.37420437e-03f, -3.50747909e-03f, -9.29649826e-03f, -3.06069870e-02f, -1.93184316e-02f, -7.80871138e-03f, 4.22326252e-02f, 1.96961667e-02f, 1.08216122e-01f, 8.96385908e-02f, 1.07664302e-01f, 1.62951320e-01f, 1.20651387e-01f, 1.24976568e-01f, 1.13918193e-01f, 7.40157962e-02f, 2.79436428e-02f, -1.82893891e-02f, -4.49098498e-02f, -9.90838036e-02f, -1.35262489e-01f, -1.82636201e-01f, -2.12490842e-01f, -2.20285162e-01f, -1.32273063e-01f, -4.32941206e-02f, 6.48120642e-02f, 4.17554602e-02f, 2.61170715e-02f, -7.25882500e-03f, 3.89929092e-03f, 8.52673128e-03f, 3.03859916e-03f, -5.57337329e-03f, 1.85779091e-02f, 2.74054352e-02f, 2.34550517e-02f, -4.04756749e-03f, 4.13039476e-02f, 1.09030418e-01f, 1.00683801e-01f, 1.51256636e-01f, 1.35753050e-01f, 8.90448466e-02f, 9.72362384e-02f, 7.47494325e-02f, -6.05644379e-03f, -3.62912491e-02f, -7.46603385e-02f, -4.73251231e-02f, -1.39814481e-01f, -1.66235074e-01f, -1.15929969e-01f, -8.91808122e-02f, -6.64336234e-02f, -3.70956697e-02f, 2.21523456e-02f, 1.13921426e-02f, -5.43065108e-02f, 6.10223003e-02f, -3.25890370e-02f, -7.65181631e-02f, -8.34529288e-03f, 8.71476158e-03f, 7.52533181e-03f, 1.15826242e-02f, 2.15011705e-02f, 9.11216512e-02f, 9.26171988e-02f, 1.42212346e-01f, 1.76041767e-01f, 2.20176205e-01f, 2.18968138e-01f, 1.18773565e-01f, 1.06408909e-01f, 2.32995339e-02f, 4.95970584e-02f, 1.04467487e-02f, -5.94087094e-02f, -1.18580170e-01f, -1.53675705e-01f, -1.53706744e-01f, -1.37295470e-01f, -3.58435586e-02f, -6.34139264e-03f, 3.53442058e-02f, -1.95708573e-02f, 5.31912223e-02f, 1.71707552e-02f, -2.34242305e-02f, -2.46113241e-02f, -3.94933261e-02f, -5.30295260e-02f, 2.70222854e-02f, 4.52418923e-02f, 3.39710191e-02f, 7.33209476e-02f, 1.32038310e-01f, 1.78613901e-01f, 2.29890436e-01f, 1.86942697e-01f, 1.13527164e-01f, 1.31750554e-01f, 7.30413795e-02f, 2.43297908e-02f, 7.75055378e-04f, -3.37307490e-02f, -7.09011257e-02f, -1.66279480e-01f, -2.18755305e-01f, -1.18458539e-01f, -4.59084325e-02f, 6.13853559e-02f, 4.96069267e-02f, -2.34120078e-02f, 4.53825295e-02f, 7.61531964e-02f, -7.33534107e-03f, 1.03576444e-02f, -1.84178073e-02f, -6.39272621e-03f, -1.17310125e-03f, 2.97692306e-02f, -9.15697427e-04f, 6.71305731e-02f, 6.13526776e-02f, 1.33674830e-01f, 2.23758474e-01f, 2.07514152e-01f, 1.86354429e-01f, 1.37542740e-01f, 9.65152234e-02f, 9.76504162e-02f, 5.48543446e-02f, 4.76496387e-03f, -8.89769010e-03f, -1.29625827e-01f, -1.79944023e-01f, -4.67093848e-02f, 3.98912467e-02f, 1.91390831e-02f, 1.11641060e-03f, -5.23761250e-02f, 9.07434225e-02f, 6.54118359e-02f, -9.06914566e-03f, 1.65456871e-03f, -1.24165649e-02f, -1.01920310e-02f, -3.54557671e-02f, 1.39102899e-02f, -2.90527251e-02f, -3.73982446e-04f, 1.11432364e-02f, 1.27405494e-01f, 1.59257337e-01f, 1.05465166e-01f, 1.13594703e-01f, 9.00108069e-02f, 1.23405777e-01f, 1.04288302e-01f, 3.82352732e-02f, 6.06550388e-02f, -6.71911892e-03f, -8.96076784e-02f, -1.28637612e-01f, -9.99296904e-02f, -9.31806024e-03f, 2.57508783e-03f, -4.35056500e-02f, 9.30665340e-03f, 5.34520634e-02f, -1.14001159e-03f, 1.21009955e-02f, 1.29445400e-02f, -5.43245114e-02f, -2.10167076e-02f, -6.69394806e-02f, -1.08291060e-01f, -1.13274120e-01f, -1.26839280e-01f, -7.87527934e-02f, 4.57256846e-02f, -4.49841395e-02f, -5.21573564e-03f, 7.44845644e-02f, 1.59979180e-01f, 1.01243727e-01f, 1.37667730e-01f, 5.83770722e-02f, 6.46866634e-02f, 8.42326581e-02f, -1.27707124e-01f, -1.84939653e-01f, -8.20308402e-02f, -7.32663786e-03f, -4.47166674e-02f, -1.60026029e-02f, -4.90120566e-03f, -5.07435873e-02f, -5.55286482e-02f, -3.95508185e-02f, -2.76524667e-02f, -9.79034305e-02f, -7.81176388e-02f, -1.24166109e-01f, -6.86015859e-02f, -1.28784671e-01f, -2.25226179e-01f, -1.54197410e-01f, -6.29680008e-02f, -1.34195343e-01f, -1.05776668e-01f, -5.01055457e-02f, 5.57219945e-02f, 1.03542849e-01f, 1.38827100e-01f, 1.61115199e-01f, 1.66436911e-01f, 1.47923008e-01f, 2.67428067e-02f, -5.69399856e-02f, -7.61237442e-02f, 2.55810592e-04f, -4.05576788e-02f, -4.32947092e-03f, -4.28737625e-02f, -2.47336719e-02f, -4.62473519e-02f, -8.83933604e-02f, -6.63708150e-02f, -9.73241329e-02f, -6.18647151e-02f, -4.38959599e-02f, -1.05275027e-01f, -1.36314481e-01f, -1.86844260e-01f, -1.35230854e-01f, -6.50311410e-02f, -1.00637838e-01f, -6.75803572e-02f, 8.47043376e-03f, 5.35663813e-02f, 1.07603975e-01f, 1.09638095e-01f, 1.41901016e-01f, 1.24162734e-01f, 1.10912830e-01f, 1.13666058e-01f, 6.69683423e-03f, -3.74921188e-02f, -5.46900220e-02f, -2.75392253e-02f, 1.13552976e-02f, -5.57379937e-03f, -3.56026106e-02f, -1.05198063e-01f, -1.46730900e-01f, -8.89553875e-02f, -8.71523991e-02f, -3.55271660e-02f, -4.12740335e-02f, -5.83196096e-02f, -1.07331291e-01f, -7.36157149e-02f, 7.04775914e-04f, 1.86976884e-02f, -3.69281806e-02f, -6.37615845e-02f, -3.62296589e-02f, 3.09242792e-02f, 8.49758834e-03f, -9.46218334e-03f, 5.28830104e-03f, 2.30100267e-02f, 8.83907825e-03f, 3.88772562e-02f, 3.18334140e-02f, 5.05680963e-02f, 3.89560238e-02f, -1.16939172e-02f, -5.68417720e-02f, 3.47885303e-02f, -3.53801847e-02f, -1.05265923e-01f, -7.63727948e-02f, -2.84001045e-02f, -4.23266180e-02f, -7.53223002e-02f, -3.86034027e-02f, -2.62126364e-02f, -4.10459675e-02f, -2.62521934e-02f, 4.85871620e-02f, 3.98560092e-02f, 2.27558408e-02f, -4.58564609e-02f, -4.27595079e-02f, -4.45202328e-02f, -5.55277318e-02f, -6.36733621e-02f, 7.11065670e-03f, -4.34840955e-02f, -1.63338631e-02f, 3.10703367e-02f, -4.17488907e-03f, 9.32999700e-02f, 8.08164999e-02f, -6.02726340e-02f, -5.61622158e-02f, -1.70619395e-02f, -5.01963496e-02f, -2.38007382e-02f, 6.43398464e-02f, 1.13410363e-02f, 7.38956779e-03f, -3.30495052e-02f, -4.46080565e-02f, -4.22096513e-02f, -2.74781696e-02f, 4.08839202e-03f, 6.61250055e-02f, -2.22932175e-02f, -3.56000438e-02f, -1.20873451e-02f, -7.78104365e-02f, -7.08018541e-02f, -8.17376003e-02f, -8.12412426e-02f, -6.40764534e-02f, -9.73771587e-02f, -4.88625579e-02f, 2.68025026e-02f, 6.03999756e-02f, 7.43830651e-02f, 7.39426091e-02f, 4.78494726e-02f, -3.48896869e-02f, 3.08950841e-02f, 5.38926236e-02f, 8.43935609e-02f, 5.22713996e-02f, 7.04080705e-03f, -1.97641738e-02f, -4.73490916e-02f, 2.22051442e-02f, 7.44245127e-02f, 2.93777082e-02f, -2.95165344e-03f, -1.96814479e-04f, -7.12521747e-02f, -9.22872126e-02f, 1.00451335e-02f, -3.10174692e-02f, -5.97382337e-02f, -1.42616019e-01f, -1.59842089e-01f, -8.04024339e-02f, -7.59686381e-02f, -2.08268650e-02f, 2.00497191e-02f, 8.27372298e-02f, 5.97545840e-02f, 8.58008191e-02f, -2.58092377e-02f, -5.50813228e-02f, -1.88612621e-02f, 1.00246079e-01f, 7.55806565e-02f, 1.44560859e-02f, 4.32162657e-02f, 2.03409474e-02f, 3.55264693e-02f, 2.65715793e-02f, 7.96344802e-02f, 6.68902025e-02f, -7.12193083e-03f, -4.47562970e-02f, -1.26113027e-01f, -4.45367992e-02f, -3.80072184e-02f, -3.27250175e-02f, -1.17037110e-01f, -1.21621639e-01f, -1.36537716e-01f, -1.13774054e-01f, -7.71209784e-03f, -2.93131210e-02f, 3.88246588e-02f, 1.57590270e-01f, 4.98350263e-02f, 8.78321603e-02f, 3.95200588e-02f, -5.21644726e-02f, -9.16017517e-02f, 5.30762821e-02f, 3.01756989e-02f, 5.29194111e-03f, 2.53247023e-02f, -1.60450451e-02f, 2.87468433e-02f, 1.32393185e-02f, 6.40148968e-02f, 2.34437622e-02f, -1.37644522e-02f, -8.57862681e-02f, -3.15031409e-02f, -4.77566309e-02f, 5.07971970e-03f, 4.27592080e-03f, -5.92333898e-02f, -1.00787297e-01f, -9.95652825e-02f, -6.21614605e-02f, 8.60858057e-03f, 5.40855788e-02f, 4.45459597e-02f, 9.39284340e-02f, 2.86339037e-02f, 9.09376070e-02f, -3.94464508e-02f, 5.57407103e-02f, -5.57304174e-02f, -2.84179430e-02f, 3.20135504e-02f, 2.63853054e-02f, 2.78681088e-02f, 1.34884529e-02f, -1.23018576e-02f, 9.96348541e-03f, 9.74955186e-02f, 6.80022985e-02f, 3.19202617e-02f, 6.95653085e-04f, -1.26462185e-03f, -1.89959779e-02f, -4.43541352e-03f, 5.22313751e-02f, -1.68264378e-04f, -4.64512408e-02f, -2.81592160e-02f, 1.80560909e-02f, 1.70193166e-02f, 4.50388603e-02f, 9.28368699e-03f, 1.11064576e-01f, 8.82232487e-02f, 2.29051262e-02f, 1.81771778e-02f, 5.84747270e-02f, -4.47301865e-02f, 1.17604109e-02f, 7.18894601e-02f, 4.21596095e-02f, 5.78194931e-02f, 4.02794145e-02f, 4.81706150e-02f, 3.36047709e-02f, 2.77734026e-02f, 1.05871763e-02f, 3.91052999e-02f, 3.33013423e-02f, 2.94870846e-02f, 1.62259713e-02f, 2.46508792e-02f, 1.76662765e-02f, -1.39952311e-02f, 6.86670071e-04f, 1.38725126e-02f, 2.93996418e-03f, 3.06331776e-02f, 5.86260557e-02f, 7.00780898e-02f, 3.44639942e-02f, 4.01910469e-02f, -3.20484787e-02f, -1.39952672e-03f, 1.57381520e-02f, 7.64300302e-02f, 3.04173585e-02f, 3.50917429e-02f, 8.79703015e-02f, 1.19883001e-01f, 6.95934817e-02f, 1.08234836e-02f, 1.61649175e-02f, 2.67908275e-02f, 2.45215259e-02f, 6.53753653e-02f, 7.60941654e-02f, 3.04896645e-02f, 4.25956957e-02f, 1.73839163e-02f, 9.77569073e-03f, 1.45168910e-02f, 2.95875557e-02f, -5.04703410e-02f, -1.51475882e-02f, -1.33549292e-02f, 6.64941147e-02f, 5.70108294e-02f, 4.02194299e-02f, 9.81983542e-02f, -7.35536218e-03f, -2.42766943e-02f, -1.59736890e-02f, 5.91203794e-02f, 3.07957549e-02f, 1.35370027e-02f, 4.30785790e-02f, 1.07302338e-01f, 1.15368910e-01f, 6.88706264e-02f, 8.27245936e-02f, 9.67779979e-02f, 6.69577122e-02f, 7.91250765e-02f, 6.57193214e-02f, 1.04992636e-01f, 1.91579461e-02f, 5.96529022e-02f, -2.15246119e-02f, -1.84238348e-02f, -8.82946362e-04f, -5.49087301e-02f, -2.03447454e-02f, 2.15337798e-02f, 3.53253186e-02f, 2.73518059e-02f, 5.42175286e-02f, -6.56662136e-02f, -2.01458484e-02f, 2.62618028e-02f, -3.28193083e-02f, 1.06140999e-02f, 4.67097424e-02f, -3.81466597e-02f, -4.17877287e-02f, 2.78110504e-02f, 9.55066606e-02f, 1.29024714e-01f, 9.09020007e-02f, 1.00855701e-01f, 1.26014367e-01f, 1.38870403e-01f, 1.31894663e-01f, 7.09704906e-02f, 5.24568483e-02f, 2.71335673e-02f, 4.10137773e-02f, 3.04751229e-02f, -8.95232428e-03f, -2.78440081e-02f, -2.52556354e-02f, 6.26331717e-02f, 9.53272656e-02f, 6.90733418e-02f, -1.20144086e-02f, -8.72263610e-02f, -6.13632798e-03f, 3.55891697e-02f, 1.81127302e-02f, 2.70753782e-02f, -4.75648232e-02f, -1.50708016e-02f, -1.07680298e-01f, -8.64062160e-02f, -3.42760384e-02f, -6.02920912e-03f, -3.13623883e-02f, 1.76142789e-02f, 1.04668783e-02f, 6.23900257e-02f, 8.46229717e-02f, 5.41159809e-02f, 8.61511230e-02f, 7.48617351e-02f, 1.09482400e-01f, 4.12984863e-02f, 6.80200802e-03f, 8.72414839e-03f, 1.63458511e-02f, 3.29238586e-02f, 7.20310733e-02f, 1.03372820e-01f, 4.70649749e-02f, 4.23082476e-03f, -3.06239985e-02f, -2.87044402e-02f, 1.47303566e-03f, 8.80148336e-02f, -1.05970010e-01f, -7.45653734e-02f, -1.17133381e-02f, 4.58266549e-02f, 7.92311952e-02f, 1.26600891e-01f, 1.22138467e-02f, 6.30982034e-03f, 6.61062747e-02f, 3.25155891e-02f, 2.56420840e-02f, 8.58360305e-02f, 9.24186483e-02f, 1.04837239e-01f, 1.32303163e-01f, 5.75748719e-02f, 1.32209465e-01f, 1.18089370e-01f, 3.64313982e-02f, -1.54629368e-02f, -5.92346489e-02f, -4.36013862e-02f, 5.58233857e-02f, 5.08552454e-02f, -3.30771059e-02f, -2.90964860e-02f, -2.96102054e-02f, 1.09874569e-02f, 3.12026739e-02f, 2.04576310e-02f, 2.53109969e-02f, 6.89282566e-02f, 1.24795370e-01f, 1.95352882e-01f, 2.40520269e-01f, 1.99170485e-01f, 1.84210539e-01f, 2.06454486e-01f, 1.77941009e-01f, 3.13115716e-01f, 1.94167554e-01f, 1.71799093e-01f, 1.59073979e-01f, 1.81101009e-01f, 2.05419078e-01f, 1.50167838e-01f, 1.99498087e-02f, 3.90310362e-02f, 3.09065823e-02f, -2.53731571e-02f, -4.43305299e-02f, -2.54917368e-02f, -9.27606225e-03f, -2.75263712e-02f, -1.71995163e-02f, 2.89855562e-02f, -1.66393910e-02f, -7.19896853e-02f, -1.15709998e-01f, -2.68705525e-02f, 2.87340470e-02f, -8.12294241e-03f, 3.34504917e-02f, 6.25041947e-02f, 4.66051027e-02f, 8.32040533e-02f, 6.00991547e-02f, 1.49257123e-01f, 4.15510610e-02f, 2.67146397e-02f, 7.93561265e-02f, 5.16253300e-02f, 2.36221440e-02f, -1.62374903e-03f, 3.65258940e-02f, -1.85330566e-02f, 7.85296317e-04f, 8.06443766e-03f, -9.10266489e-03f, -1.18854642e-02f, -2.09993348e-02f },
    /* row  4 */ { 2.17774473e-02f, 4.26644832e-03f, 9.87714529e-03f, -1.03756413e-02f, 9.19153914e-03f, -3.56055424e-03f, 3.28458510e-02f, -1.30181406e-02f, 1.55392587e-02f, -1.01254713e-02f, -3.03756520e-02f, 1.99574418e-02f, 3.57141048e-02f, 3.71857099e-02f, -6.34890422e-03f, 6.98428974e-03f, -8.06929916e-03f, -1.72766708e-02f, 8.34891200e-03f, -1.28671229e-02f, 1.55695118e-02f, -1.81913469e-02f, 9.79658216e-04f, 1.02918595e-04f, -1.19468328e-02f, -1.46258008e-02f, 2.37081051e-02f, -8.56205449e-03f, 9.64476913e-03f, 2.61206366e-02f, -3.39702740e-02f, 4.03764844e-03f, 2.78095715e-02f, 3.71083543e-02f, 5.07362224e-02f, 5.91777302e-02f, 3.89568135e-02f, 5.67356311e-02f, 6.37288094e-02f, 7.66979977e-02f, 4.96239476e-02f, 8.55607092e-02f, 1.94312949e-02f, -8.03362951e-03f, -6.43434152e-02f, 1.95863675e-02f, 1.49998218e-01f, 9.42192003e-02f, 8.20727646e-02f, 8.54340494e-02f, 7.99914300e-02f, 2.18540840e-02f, -3.73225659e-04f, 2.64167935e-02f, 2.86916830e-02f, 2.61354074e-03f, 9.10514966e-03f, -2.83336528e-02f, 2.80881096e-02f, -2.73861103e-02f, 4.58419882e-02f, 3.78511436e-02f, 8.97389427e-02f, 8.53206739e-02f, 7.72665441e-02f, 2.98370142e-03f, -1.97420865e-02f, 6.20480217e-02f, 5.13069928e-02f, 7.80493841e-02f, 8.98476616e-02f, 4.81790528e-02f, 4.01682332e-02f, 1.14249617e-01f, 9.48977470e-02f, 1.00692213e-01f, 8.09404254e-02f, 1.04321875e-01f, 1.57151848e-01f, 8.53649527e-02f, 1.17303245e-01f, 3.18769254e-02f, -8.40961561e-03f, -2.65394896e-03f, 2.06550993e-02f, -3.33823040e-02f, -4.91240062e-02f, 2.75950581e-02f, 3.41165923e-02f, -3.22794840e-02f, 3.29443775e-02f, 4.13135178e-02f, -5.35434596e-02f, -8.75493065e-02f, -4.77740355e-02f, -1.73573866e-02f, -7.22509529e-03f, -2.70846635e-02f, 7.47396424e-02f, 1.83180142e-02f, 5.38319163e-02f, 6.42431155e-02f, 6.44193515e-02f, 1.22505814e-01f, 7.87743852e-02f, 1.01011418e-01f, 1.04826100e-01f, 1.15293868e-01f, 4.78572473e-02f, 1.34388870e-02f, -6.37272373e-02f, 6.58765063e-03f, 3.24677490e-02f, 1.60017423e-02f, -3.12986039e-02f, 2.01445986e-02f, 1.88918374e-02f, -9.90777612e-02f, -1.02406412e-01f, -1.39824376e-01f, -1.62645072e-01f, -1.71427816e-01f, -1.30566224e-01f, -9.26783383e-02f, -6.62716851e-02f, -3.37992869e-02f, -5.50600933e-03f, -3.09774335e-02f, 1.88714564e-02f, 2.40684114e-02f, 5.68836071e-02f, 5.45082651e-02f, 9.27814916e-02f, 8.76399800e-02f, 5.75188585e-02f, 1.03584528e-01f, -5.33903297e-03f, -4.37635370e-02f, -7.93861449e-02f, -4.23636772e-02f, 8.61730427e-04f, -5.06201014e-03f, 6.12645224e-03f, -8.32120404e-02f, -8.97546709e-02f, -1.41218692e-01f, -1.62897512e-01f, -1.76323190e-01f, -1.35569632e-01f, -1.35544300e-01f, -1.16213925e-01f, -4.60452363e-02f, -9.96114177e-05f, -2.26559732e-02f, 5.05817449e-03f, -1.10863270e-02f, -6.10261736e-03f, -1.51503263e-02f, 5.16754612e-02f, 6.26101792e-02f, 6.26938045e-02f, 7.95529038e-02f, 4.74929400e-02f, 8.11732635e-02f, 2.37258635e-02f, -5.35147712e-02f, -5.64475283e-02f, 7.94606190e-03f, 3.84025648e-03f, -5.88255078e-02f, 4.58419509e-02f, -5.96256182e-02f, -1.04170918e-01f, -1.08439118e-01f, -1.45961314e-01f, -1.39909089e-01f, -1.49960116e-01f, -1.09707035e-01f, -2.21164953e-02f, 1.15633868e-02f, 4.18677703e-02f, 5.80591373e-02f, 7.19757974e-02f, 7.63786584e-02f, 6.51970971e-03f, 2.96390820e-02f, 2.68245190e-02f, 3.08018201e-03f, 7.55899325e-02f, 1.97656117e-02f, 1.43944472e-02f, 4.39487323e-02f, 3.69306393e-02f, 6.96674064e-02f, 4.70013544e-03f, 4.46784683e-03f, 1.74122341e-02f, -5.87111339e-02f, -6.54455833e-03f, -1.07506096e-01f, -1.25850737e-01f, -1.24454051e-01f, -1.40530705e-01f, -1.11513391e-01f, -9.94186923e-02f, -2.99759898e-02f, 3.63357924e-02f, 7.69199654e-02f, 9.18453336e-02f, 1.11048266e-01f, 1.01808362e-01f, 9.32856873e-02f, 8.20647478e-02f, 1.96621921e-02f, -2.95534655e-02f, -4.05870788e-02f, -2.21398175e-02f, -6.29457878e-03f, 2.13203523e-02f, 2.58423444e-02f, 3.19372900e-02f, 3.09691150e-02f, 4.98986803e-02f, -8.41989964e-02f, -2.16297037e-03f, -4.77929078e-02f, -3.36291678e-02f, -9.15623605e-02f, -1.46763861e-01f, -1.22016512e-01f, -1.35265797e-01f, -1.43488526e-01f, -6.59648776e-02f, -6.37720078e-02f, -2.32231542e-02f, 2.66335923e-02f, 4.30047512e-02f, 9.74929407e-02f, 1.23619623e-01f, 5.56304604e-02f, -5.52211702e-02f, -1.28662363e-01f, -1.42542407e-01f, -2.11574942e-01f, -1.99588209e-01f, -4.04163375e-02f, -4.07430269e-02f, -5.56780919e-02f, -3.68393771e-02f, -4.02630819e-03f, -1.37105742e-02f, -8.91865119e-02f, -9.07084197e-02f, -9.36273951e-03f, -4.61471900e-02f, -1.29869252e-01f, -1.39032662e-01f, -1.74386010e-01f, -1.42421693e-01f, -1.67408094e-01f, -9.29949507e-02f, -1.07293569e-01f, -6.47599157e-03f, 4.02574800e-02f, 4.78661917e-02f, 6.49666563e-02f, 6.36826083e-02f, -3.28587815e-02f, -1.23419255e-01f, -2.37091154e-01f, -2.59404480e-01f, -2.48906896e-01f, -2.61699915e-01f, -2.07591161e-01f, -1.78316087e-01f, -1.78045452e-01f, -1.08151294e-01f, -6.23348951e-02f, -1.14399038e-01f, 1.06500303e-02f, -2.17251740e-02f, -3.98295596e-02f, -1.42233849e-01f, -1.26733199e-01f, -2.08895579e-01f, -1.97681442e-01f, -2.25036621e-01f, -1.06320195e-01f, -6.97837770e-02f, 1.44941104e-03f, 1.23541380e-04f, 8.82666782e-02f, 1.09410897e-01f, 1.16409548e-01f, 2.58082282e-02f, -1.29906386e-01f, -1.22624956e-01f, -1.97931781e-01f, -1.96653634e-01f, -2.45319352e-01f, -1.96382165e-01f, -1.88346431e-01f, -1.70505106e-01f, -2.04269499e-01f, -1.82138607e-01f, -8.30482990e-02f, -1.06216967e-01f, -1.82757545e-02f, -6.28168508e-02f, -4.35619652e-02f, -9.90229025e-02f, -1.56608999e-01f, -1.91382080e-01f, -1.99393883e-01f, -1.51540592e-01f, -4.60419841e-02f, -2.14487361e-03f, -1.79250557e-02f, 9.70504135e-02f, 1.46920204e-01f, 1.27127931e-01f, 9.21362936e-02f, -4.88753729e-02f, -8.23078826e-02f, -2.74113975e-02f, -1.29543236e-02f, -6.01418205e-02f, -1.14607342e-01f, -1.04718864e-01f, -7.71127194e-02f, -1.25129968e-01f, -1.21882066e-01f, -2.31851935e-01f, -2.11825132e-01f, -1.96950734e-01f, -1.40298763e-02f, -4.41717692e-02f, -9.41977203e-02f, -8.37972611e-02f, -1.63133025e-01f, -1.13711923e-01f, -1.10366575e-01f, -4.44904715e-02f, -2.02220958e-02f, 6.07250771e-03f, 5.94118163e-02f, 9.85920504e-02f, 1.53066695e-01f, 1.04585908e-01f, 5.03464192e-02f, -2.08096439e-03f, 2.84576863e-02f, 5.81605211e-02f, 7.01985583e-02f, 2.14602868e-03f, -9.40430611e-02f, -6.12118207e-02f, -5.11197522e-02f, -4.47038226e-02f, -5.45099229e-02f, -1.56427562e-01f, -2.28358984e-01f, -1.27965882e-01f, -6.53457791e-02f, 2.75195297e-02f, -7.23580718e-02f, -9.30199549e-02f, -1.14414729e-01f, -2.65736505e-02f, -2.76627392e-02f, -5.21104075e-02f, -2.97510643e-02f, 2.79440060e-02f, 6.44796789e-02f, 1.36059910e-01f, 9.56313536e-02f, 6.16443530e-02f, -1.24176424e-02f, -5.74595593e-02f, 2.40844488e-02f, 8.76644626e-02f, 8.00644308e-02f, 4.36682850e-02f, 1.37732725e-03f, 2.52619293e-02f, -2.81720832e-02f, -4.58783843e-02f, -1.09345436e-01f, -1.97910175e-01f, -2.26815134e-01f, -1.67938814e-01f, -5.14798127e-02f, -2.22626720e-02f, 6.92538731e-03f, -4.85071689e-02f, -3.24878395e-02f, -1.94331463e-02f, 5.00143913e-04f, -6.43060058e-02f, 5.63195301e-03f, 4.67519611e-02f, 9.15694907e-02f, 1.04800008e-01f, 7.03344420e-02f, 5.68674412e-04f, -7.10529462e-02f, -9.73261818e-02f, -4.36184136e-03f, 6.19800761e-02f, 8.45796838e-02f, 6.77770004e-02f, 9.33930501e-02f, 9.64027941e-02f, 3.98667566e-02f, -7.13126957e-02f, -1.51350945e-01f, -1.82094753e-01f, -1.58490434e-01f, -1.71420813e-01f, -7.73148537e-02f, -1.48010217e-02f, 3.84636782e-02f, -3.23586725e-02f, -8.51111040e-02f, -6.11017160e-02f, -5.04209325e-02f, -6.86273128e-02f, 6.37585856e-03f, 9.40390900e-02f, 3.37127447e-02f, 9.67976600e-02f, 6.85436055e-02f, 5.08888438e-03f, -1.53574154e-01f, -8.17407593e-02f, -2.50231591e-03f, 8.37474242e-02f, 8.13648552e-02f, 7.23506361e-02f, 1.07004575e-01f, 3.98808680e-02f, 2.36779153e-02f, -9.70455334e-02f, -1.30645171e-01f, -1.79875925e-01f, -1.66566879e-01f, -2.00139672e-01f, -6.51850328e-02f, 2.98491325e-02f, -2.06754226e-02f, -1.07726291e-01f, -9.45480540e-02f, -3.99765559e-02f, -1.06401354e-01f, -9.08381715e-02f, 2.58663297e-02f, 5.77093624e-02f, 1.03518724e-01f, 8.51106197e-02f, 1.09759159e-01f, -7.73380846e-02f, -1.58332437e-01f, -4.20271270e-02f, 1.75839737e-02f, 5.27544841e-02f, 9.30525064e-02f, 1.03894837e-01f, 9.01990235e-02f, 2.76581571e-02f, -6.18856400e-02f, -8.66178721e-02f, -2.14613184e-01f, -1.86334461e-01f, -2.17628688e-01f, -1.87807873e-01f, -9.04415771e-02f, -2.68788990e-02f, 2.69510187e-02f, -6.04274608e-02f, -9.77447554e-02f, -2.89481673e-02f, -6.95979893e-02f, -4.78736497e-02f, 2.39424757e-04f, 8.86592716e-02f, 5.72631285e-02f, 9.07972232e-02f, 2.90209427e-02f, -1.17286853e-01f, -8.64695087e-02f, 2.01562624e-02f, 7.70828798e-02f, 6.13676310e-02f, 8.70538577e-02f, 1.37111455e-01f, 7.33599216e-02f, -4.81246002e-02f, -1.12744696e-01f, -1.63084447e-01f, -1.61414951e-01f, -1.81438431e-01f, -1.93200529e-01f, -1.70261532e-01f, -8.83130208e-02f, -2.91530341e-02f, 5.31038307e-02f, -5.09951226e-02f, -5.24949245e-02f, -2.53474824e-02f, -3.45419645e-02f, -9.36186761e-02f, -7.82850906e-02f, -2.11769603e-02f, -3.42581142e-03f, 3.42763551e-02f, -6.21779263e-02f, -6.52635768e-02f, -3.05836797e-02f, 1.03127070e-01f, 8.76196250e-02f, 6.10471368e-02f, 8.99339840e-02f, 4.56307009e-02f, 3.06570455e-02f, -3.29145491e-02f, -1.08409002e-01f, -1.71436384e-01f, -1.93117872e-01f, -2.01006398e-01f, -1.34694993e-01f, -8.72043818e-02f, -3.49814855e-02f, -3.43670435e-02f, -7.44428635e-02f, 2.35690903e-02f, -2.65119839e-02f, -2.27347631e-02f, -2.67384686e-02f, -9.56888273e-02f, -9.32218060e-02f, -6.96329921e-02f, -7.18413591e-02f, -9.17063057e-02f, -7.90487379e-02f, -1.09410480e-01f, -3.15222442e-02f, 1.30083561e-01f, 1.12877846e-01f, 7.25878552e-02f, 3.89049724e-02f, 5.15534729e-02f, -3.53108868e-02f, -8.64158347e-02f, -1.00502387e-01f, -1.56197891e-01f, -1.83054581e-01f, -1.66005626e-01f, -1.50564939e-01f, -1.09719351e-01f, -2.57715080e-02f, -1.43441260e-02f, -7.01024681e-02f, 2.94127092e-02f, 1.20626744e-02f, 3.23900506e-02f, -1.17282290e-02f, -3.95674221e-02f, -1.17858343e-01f, -1.15997501e-01f, -1.55339271e-01f, -1.61282808e-01f, -1.13175437e-01f, -7.74017498e-02f, 4.36776616e-02f, 1.38992399e-01f, 1.21109627e-01f, 1.28236070e-01f, 7.99275041e-02f, 4.12122253e-03f, -6.07341640e-02f, -1.27762690e-01f, -1.67324662e-01f, -1.74286202e-01f, -1.63358659e-01f, -8.65423530e-02f, -6.96265027e-02f, -2.62056640e-03f, 6.94571249e-03f, 8.93138163e-03f, -4.19420376e-03f, -6.59573376e-02f, -7.91465491e-02f, -3.80468480e-02f, -3.98881510e-02f, -2.90342998e-02f, -5.48596457e-02f, -2.90616024e-02f, -8.61860290e-02f, -7.98150972e-02f, -5.28692342e-02f, 8.97390768e-03f, 7.28453174e-02f, 1.51628375e-01f, 1.12246864e-01f, 1.11922160e-01f, 6.54383451e-02f, 4.48600538e-02f, -8.18831101e-02f, -6.19554520e-02f, -1.16129883e-01f, -9.00358185e-02f, -1.02630496e-01f, -4.62406091e-02f, -5.70753030e-02f, -5.47009818e-02f, 2.48877089e-02f, 4.08619419e-02f, -2.28966400e-02f, -6.15613796e-02f, -1.08348653e-01f, -6.63319454e-02f, -4.24866565e-02f, -9.38230455e-02f, -9.58900228e-02f, -4.73731346e-02f, -7.93224871e-02f, -7.40685537e-02f, -7.82961994e-02f, -5.42950165e-03f, 4.09204848e-02f, 1.00557305e-01f, 9.30299461e-02f, 7.02331960e-02f, 5.49620502e-02f, -4.10256162e-02f, -6.52673095e-02f, -4.65776734e-02f, -1.04305834e-01f, -1.22577965e-01f, -1.12930179e-01f, -2.86965575e-02f, -7.04380125e-02f, -1.90196391e-02f, 4.55417559e-02f, 1.85953490e-02f, -9.16006789e-03f, -9.29141492e-02f, -9.57212597e-02f, -5.10333814e-02f, -4.80618291e-02f, -1.06732413e-01f, -1.56015590e-01f, -1.00975454e-01f, -8.28550085e-02f, -5.33610545e-02f, -4.68689129e-02f, -4.06927778e-04f, 2.50310581e-02f, 4.94761579e-02f, 3.67404781e-02f, 3.96200269e-02f, 1.02357008e-04f, -2.77812835e-02f, -6.80159926e-02f, -5.23859710e-02f, -9.85669121e-02f, -8.49749073e-02f, -8.42078105e-02f, -5.33529334e-02f, -7.47736841e-02f, 2.03789659e-02f, 2.40261294e-02f, 6.38126954e-03f, -4.73677740e-03f, -1.17418310e-03f, -9.39061493e-02f, -9.58712175e-02f, -4.44146544e-02f, -8.17074105e-02f, -7.37141147e-02f, -7.23519176e-02f, -5.70018962e-02f, -4.07944173e-02f, -4.55273092e-02f, -2.68368628e-02f, -4.18493338e-02f, -9.71419550e-03f, -2.55714655e-02f, 1.83940418e-02f, 5.01374081e-02f, -2.04730090e-02f, -5.57501912e-02f, -5.41837811e-02f, -2.36918870e-02f, -5.77779785e-02f, 2.51293927e-02f, -6.84677958e-02f, -3.13206241e-02f, -4.72418927e-02f, 4.92146984e-03f, -2.82314010e-02f, -4.81820107e-03f, -1.26195885e-02f, -6.18192255e-02f, -6.80142716e-02f, 1.88867503e-03f, -1.16930250e-02f, -6.40248368e-03f, -1.80687346e-02f, -6.09477144e-03f, 2.69965865e-02f, -1.51449749e-02f, 4.93004099e-02f, 2.88405586e-02f, 3.41456793e-02f, 1.72742847e-02f, -3.66320051e-02f, 1.80195943e-02f, 5.82210720e-02f, -5.53476717e-03f, 3.06579079e-02f, 2.91724987e-02f, 3.08939908e-02f, 5.28442375e-02f, 3.25861238e-02f, -3.43054198e-02f, -2.81048771e-02f, -3.40005904e-02f, -1.91001352e-02f, -1.32948123e-02f, 3.13322581e-02f, 1.11488225e-02f, 1.91198885e-02f, 8.08009282e-02f, 7.84297884e-02f, 6.15851842e-02f, 6.68943152e-02f, 1.35536462e-01f, 1.08051747e-01f, 6.32841885e-02f, 8.94524679e-02f, 1.61364913e-01f, 1.83129281e-01f, 1.23589188e-01f, 7.15427101e-02f, 6.24580570e-02f, 6.82129413e-02f, 2.33371202e-02f, 3.67293321e-02f, -2.44983323e-02f, -2.49031442e-03f, 1.54815530e-02f, 6.25130534e-02f, 1.61379930e-02f, -2.78873835e-02f, 3.49852704e-02f, 1.66867450e-02f, -1.45559832e-02f, 2.30535716e-02f, -4.86478582e-03f, -3.98617201e-02f, -5.89105673e-02f, 2.04362962e-02f, 2.31035352e-02f, -2.38918513e-02f, 1.79268736e-02f, 4.02787281e-03f, 1.70296617e-02f, 3.72904502e-02f, -3.44884433e-02f, 1.86918620e-02f, 1.65000968e-02f, -4.55311500e-02f, -4.21779603e-02f, -1.60621712e-03f, -2.13867370e-02f, 2.21105404e-02f, -5.58962151e-02f, -3.08364425e-02f, 1.41104516e-02f, -1.94189698e-03f, -3.17740925e-02f, -3.19441743e-02f, -2.51951572e-02f },
    /* row  5 */ { -2.59344280e-02f, 2.73943320e-03f, 2.82296166e-03f, -1.67799555e-02f, -1.06240008e-02f, -1.16066206e-02f, 1.72532350e-02f, -2.73955464e-02f, -1.50785670e-02f, 2.91996561e-02f, -2.78747976e-02f, -2.24160999e-02f, -2.14412734e-02f, -2.68434137e-02f, -2.84282360e-02f, 2.65070125e-02f, 8.28184932e-03f, 9.91953909e-03f, 3.17477919e-02f, 5.40494919e-04f, 2.35186964e-02f, 2.39448398e-02f, 8.51228833e-05f, 2.96722688e-02f, 1.74339041e-02f, 1.52946077e-02f, -1.03284176e-02f, -1.65012665e-02f, -2.75856405e-02f, -2.28846762e-02f, -5.47931530e-03f, 1.49585195e-02f, -3.19882259e-02f, -2.96187960e-02f, 1.71866156e-02f, 6.23225309e-02f, 2.42569447e-02f, -4.21578549e-02f, 7.78036239e-03f, 1.90165341e-02f, -5.10432245e-03f, 9.73936096e-02f, 5.89260086e-02f, 8.06416050e-02f, -4.20557857e-02f, -2.83332597e-02f, 8.83153602e-02f, 4.51614521e-02f, -1.42101692e-02f, -1.13880504e-02f, 1.13952551e-02f, 1.90613456e-02f, -3.07859834e-02f, -7.96659477e-03f, 2.72552483e-02f, 2.85357125e-02f, -2.83003040e-02f, -4.94144298e-03f, -2.08614692e-02f, 3.50160711e-02f, -1.68615244e-02f, -2.32701488e-02f, 3.78229879e-02f, 5.30906096e-02f, -5.32707665e-03f, -1.96174093e-04f, 1.10834315e-02f, -2.53064986e-02f, -1.67022329e-02f, 6.43408392e-03f, -8.32640287e-03f, 2.83814631e-02f, 8.13359842e-02f, 5.15453406e-02f, 5.21839894e-02f, 7.44104460e-02f, 1.67069957e-02f, -1.03052668e-02f, -1.04911737e-02f, 5.61835291e-03f, 9.14789271e-03f, 3.07405163e-02f, 6.61509857e-03f, -2.22420916e-02f, 2.01582126e-02f, 1.61925703e-02f, 3.53656746e-02f, 4.24260013e-02f, 3.57628055e-02f, -5.83215617e-02f, -8.27179849e-02f, -5.90412356e-02f, 3.05922553e-02f, 5.80629110e-02f, 1.69470571e-02f, 2.99446564e-02f, 1.35044262e-01f, 1.51976302e-01f, 1.49241894e-01f, 9.35666263e-02f, 1.13277689e-01f, 6.08456396e-02f, 1.26366019e-01f, 1.22671425e-01f, 1.35790110e-01f, 5.76040223e-02f, 1.37086734e-02f, 3.50765255e-03f, 8.13697502e-02f, 6.07181825e-02f, 4.22253646e-02f, 1.72454678e-02f, 1.57512426e-02f, -3.63323428e-02f, -1.22491475e-02f, -7.78143434e-03f, -9.81715918e-02f, -1.02578171e-01f, -5.67442812e-02f, -1.98793728e-02f, -2.58089118e-02f, 2.63108388e-02f, 1.03837624e-02f, 3.55313048e-02f, 1.57265570e-02f, 4.91673350e-02f, 3.80701013e-02f, 5.72943240e-02f, 2.30447873e-02f, 1.01052500e-01f, 1.16062842e-01f, 9.43540111e-02f, 4.84971777e-02f, 2.23652013e-02f, 7.19463527e-02f, 3.90908010e-02f, 3.75827439e-02f, 1.17853224e-01f, 7.95626342e-02f, 2.75399722e-02f, -2.41997093e-03f, -8.36674683e-03f, -1.11133642e-02f, -4.19805534e-02f, -1.00643829e-01f, -4.31148987e-03f, -3.03078517e-02f, 9.15592909e-03f, 2.44930908e-02f, 4.29190882e-03f, 5.21814823e-02f, 3.85779887e-02f, 4.06828225e-02f, 1.02372780e-01f, 8.37180465e-02f, 6.98892847e-02f, 4.89948541e-02f, 9.71366763e-02f, 8.64880010e-02f, 6.99173957e-02f, 7.70960152e-02f, 5.40238135e-02f, 4.40338850e-02f, 1.00087240e-01f, 8.58912021e-02f, 1.27551317e-01f, 9.19768289e-02f, 4.60169576e-02f, -2.95313913e-02f, 2.17413250e-02f, 8.88221115e-02f, -7.12748170e-02f, -5.94486110e-02f, 6.99863806e-02f, 2.59463303e-02f, 6.65966570e-02f, 8.54360014e-02f, 4.65452038e-02f, 5.55293113e-02f, 7.02879354e-02f, 4.63317335e-02f, 1.12095080e-01f, 1.51610151e-01f, 1.10567421e-01f, 1.21701047e-01f, 9.34804231e-02f, 1.09084480e-01f, 6.26174361e-02f, 1.13177821e-01f, 8.22367370e-02f, 4.53702211e-02f, 5.84854223e-02f, 9.78583619e-02f, 1.36119559e-01f, 1.32482022e-01f, 8.49573612e-02f, -1.60691049e-02f, -3.66841350e-03f, 6.11825064e-02f, 5.09028137e-03f, -9.75534692e-02f, -1.81067139e-02f, 4.57234718e-02f, 5.06340973e-02f, 3.04348152e-02f, 5.87045029e-02f, 9.12012905e-02f, 1.03835635e-01f, 1.27975285e-01f, 1.56468198e-01f, 1.80672750e-01f, 1.35336846e-01f, 9.55221727e-02f, 1.13249473e-01f, 9.70415771e-02f, 7.68152624e-02f, 6.61604553e-02f, 2.73962300e-02f, 3.47411111e-02f, -2.32441239e-02f, 5.14267646e-02f, 1.58971950e-01f, 1.10412315e-01f, 3.44193056e-02f, 3.07400934e-02f, 8.34147856e-02f, 1.16475455e-01f, 4.60080951e-02f, -9.18647423e-02f, -3.64492238e-02f, 1.63540151e-02f, 7.85695389e-03f, 8.21439326e-02f, 6.18023761e-02f, 1.01278871e-01f, 1.30726278e-01f, 2.03087136e-01f, 1.42105281e-01f, 1.61898494e-01f, 9.89408717e-02f, 7.00995326e-02f, 3.96967977e-02f, -4.46257107e-02f, 1.50319096e-02f, -7.47107575e-03f, -3.24717201e-02f, -5.30165546e-02f, -4.59362380e-02f, 3.35678831e-02f, 9.27129313e-02f, 5.83403111e-02f, 3.14345583e-02f, 6.94657713e-02f, 7.42054954e-02f, 7.34512955e-02f, 2.20782775e-02f, -3.76091935e-02f, -4.93209250e-02f, 1.12063263e-03f, 2.31551845e-02f, 6.67760894e-02f, 6.87110052e-02f, 1.27286464e-01f, 1.98863402e-01f, 2.16931775e-01f, 2.27828920e-01f, 1.62676811e-01f, 4.23649624e-02f, -7.91810304e-02f, -1.01871520e-01f, -7.36675411e-02f, -9.23561156e-02f, -1.01994425e-01f, -1.14093587e-01f, -1.13774836e-01f, -5.08078076e-02f, 1.63580365e-02f, 7.94122517e-02f, 5.90737499e-02f, 6.38962090e-02f, 8.59377980e-02f, 7.65865818e-02f, 9.58634689e-02f, 3.27609405e-02f, -8.58566910e-03f, -1.83670186e-02f, 7.79253291e-03f, 1.90461669e-02f, 6.75915480e-02f, 5.85227422e-02f, 1.35938942e-01f, 1.37044385e-01f, 1.20825239e-01f, 1.43226594e-01f, 1.57686532e-03f, -1.27280936e-01f, -2.34785840e-01f, -1.72538847e-01f, -1.35873869e-01f, -1.84355557e-01f, -1.20736532e-01f, -1.80454403e-01f, -1.41067266e-01f, -1.21043213e-01f, -1.47377839e-02f, 2.82805562e-02f, 6.59183860e-02f, 2.57951021e-02f, 1.07249357e-01f, 8.04877281e-02f, 9.30663049e-02f, 3.55912931e-02f, 3.22797447e-02f, -4.65331897e-02f, 3.99322622e-03f, 5.10064438e-02f, 8.12929496e-02f, 3.92754264e-02f, 9.51550603e-02f, 6.95545524e-02f, 4.04906757e-02f, -3.54121253e-03f, -1.17764272e-01f, -2.20448449e-01f, -2.11160570e-01f, -1.07525639e-01f, -6.08347580e-02f, -1.36690423e-01f, -2.09483236e-01f, -2.01798320e-01f, -1.62990659e-01f, -1.58642069e-01f, -1.35158703e-01f, 7.31296325e-03f, 4.77433689e-02f, 6.41350523e-02f, 3.94387655e-02f, 9.96948928e-02f, 1.12509802e-01f, 4.58741151e-02f, 5.84037192e-02f, 1.46157937e-02f, 4.76490669e-02f, 3.65445465e-02f, 5.21444120e-02f, 2.40298966e-03f, 3.28366198e-02f, 4.42402344e-03f, -5.45391254e-02f, -1.61180079e-01f, -1.94268301e-01f, -1.93389073e-01f, -1.53773576e-01f, -2.61733029e-02f, 5.18628843e-02f, -8.64788070e-02f, -7.61752948e-02f, -1.39976636e-01f, -9.78291333e-02f, -8.97001773e-02f, -1.35757133e-01f, -6.52407855e-02f, 3.21586281e-02f, 5.18975593e-02f, 5.74291497e-03f, 8.03738534e-02f, 7.14564174e-02f, 3.14335711e-02f, 3.43759432e-02f, -2.82394094e-03f, 4.07933295e-02f, 2.61269622e-02f, -2.86461459e-03f, -1.16413636e-02f, 7.09251966e-03f, -7.31378719e-02f, -1.12790003e-01f, -1.86868310e-01f, -1.29761279e-01f, -1.97810739e-01f, -1.02619596e-01f, -5.00879027e-02f, 3.59455193e-03f, -5.76947406e-02f, -2.26801708e-02f, -6.77050650e-02f, -5.73818572e-02f, -2.88750865e-02f, -2.95275431e-02f, -6.53884858e-02f, 3.22073139e-02f, -1.29063176e-02f, 6.52220622e-02f, 2.63519678e-03f, 4.02641036e-02f, -2.49800738e-02f, -3.10813654e-02f, -5.74669018e-02f, -5.78365773e-02f, -2.37203352e-02f, 3.17854024e-02f, 3.61299072e-03f, -3.55575383e-02f, -1.67238474e-01f, -1.78228915e-01f, -1.43278688e-01f, -1.36741415e-01f, -1.08622402e-01f, -1.08925767e-01f, -9.86009911e-02f, -6.61408156e-02f, -2.68171765e-02f, 2.62526213e-03f, 4.55463789e-02f, 7.82260671e-02f, 8.97030346e-03f, 3.61949727e-02f, -5.12235425e-02f, 9.65527594e-02f, 5.78470016e-03f, 5.24210818e-02f, -5.97255006e-02f, 8.02380592e-03f, -3.30768116e-02f, 2.39412463e-03f, -4.66211736e-02f, -5.15051782e-02f, -6.76673204e-02f, -8.88195485e-02f, -6.84543923e-02f, -3.79456729e-02f, -1.10645644e-01f, -1.10241532e-01f, -1.61287606e-01f, -1.45978972e-01f, -9.94659960e-02f, -1.21590212e-01f, -3.47339101e-02f, -2.23631542e-02f, -1.32720415e-02f, -1.71236997e-03f, 6.27109706e-02f, 1.87145267e-02f, 6.98914975e-02f, 9.08538848e-02f, -3.74218896e-02f, 4.26626131e-02f, -5.37278084e-03f, 1.03772860e-02f, -7.22135454e-02f, 1.05461420e-03f, -3.32464576e-02f, -1.64715070e-02f, -1.51242455e-02f, -1.30149946e-01f, -1.24084845e-01f, -1.56633869e-01f, -1.11778572e-01f, -6.22682050e-02f, -7.62082711e-02f, -9.47335064e-02f, -2.02094153e-01f, -1.76606804e-01f, -9.14490372e-02f, -7.51275569e-02f, -5.49404919e-02f, 3.19302045e-02f, 4.45165634e-02f, -1.16881365e-02f, 4.43797521e-02f, 3.14349793e-02f, 5.63757308e-02f, 9.07022953e-02f, 4.50803898e-03f, 1.10524870e-01f, -3.74233797e-02f, -2.41612159e-02f, -3.25757600e-02f, -7.63953403e-02f, 2.02193391e-02f, -1.01358285e-02f, -1.01842172e-01f, -1.33460477e-01f, -1.72679037e-01f, -2.12725803e-01f, -2.18563005e-01f, -1.42853558e-01f, -1.74450666e-01f, -2.74768561e-01f, -3.25558275e-01f, -1.34624839e-01f, -4.76256534e-02f, -2.98271459e-02f, 3.66236903e-02f, 8.97674263e-02f, 6.94532245e-02f, 1.65217035e-02f, 4.09206860e-02f, -1.40875066e-03f, -2.74111563e-03f, 2.08986606e-02f, 1.19562693e-01f, 6.93264157e-02f, 4.57401294e-03f, 2.59094182e-02f, 1.65295061e-02f, -3.59848291e-02f, -7.66774733e-03f, 1.32053178e-02f, -3.22241597e-02f, -7.68586099e-02f, -1.14472322e-01f, -1.45153537e-01f, -2.06697837e-01f, -1.87976509e-01f, -2.72868425e-01f, -3.67789537e-01f, -3.40783983e-01f, -6.21685386e-02f, 5.39695956e-02f, 5.12023792e-02f, 7.75051787e-02f, 7.21502006e-02f, 8.27336833e-02f, 8.75585973e-02f, 6.85460446e-03f, 1.57609079e-02f, 1.24735143e-02f, 3.09454240e-02f, 1.14773698e-01f, 6.89774975e-02f, -9.12046954e-02f, 2.05458403e-02f, 3.72207351e-02f, 4.17665532e-03f, -2.17973907e-02f, 4.37180698e-02f, -1.60355698e-02f, -5.59218265e-02f, -9.54755396e-02f, -8.85611996e-02f, -1.20756753e-01f, -2.05442980e-01f, -2.30026037e-01f, -2.53793567e-01f, -1.47456259e-01f, 3.05955112e-02f, 1.86218724e-01f, 1.14046127e-01f, 7.21697062e-02f, 4.41541560e-02f, 5.21716774e-02f, 7.81729147e-02f, 7.04685971e-02f, 2.49769958e-03f, 1.28914276e-03f, 7.22163767e-02f, 1.35829777e-01f, 3.18183117e-02f, -6.33867979e-02f, -1.67870279e-02f, 1.06593743e-02f, 4.87326756e-02f, 3.32102589e-02f, 9.93258283e-02f, 2.28898562e-02f, -3.22095416e-02f, -3.77413705e-02f, 5.03065139e-02f, -2.16946490e-02f, -7.20919445e-02f, 4.63232491e-03f, 9.17286240e-03f, 4.53601442e-02f, 1.87130690e-01f, 1.70712501e-01f, 1.63569033e-01f, 1.12364329e-01f, 2.84894407e-02f, 3.32664661e-02f, 2.57821586e-02f, 1.76185463e-02f, 9.22539309e-02f, 5.92779145e-02f, 6.74738884e-02f, 9.64152068e-02f, 1.05316214e-01f, -2.14611944e-02f, 4.22701836e-02f, 8.36994220e-03f, -4.77696536e-03f, 5.02479300e-02f, 8.57184976e-02f, 5.62288798e-02f, 3.87852490e-02f, 5.75314015e-02f, 5.94734140e-02f, 6.55175075e-02f, 8.46956074e-02f, 1.07899070e-01f, 1.70724869e-01f, 1.35785699e-01f, 2.03511104e-01f, 1.96923882e-01f, 1.34480134e-01f, 1.04531772e-01f, 9.30101797e-02f, 6.01915084e-02f, 6.59053549e-02f, 9.88074318e-02f, 5.01132719e-02f, 3.98523919e-02f, 9.10486802e-02f, 6.81615472e-02f, 7.79590532e-02f, 4.49799076e-02f, -1.60922576e-03f, 1.25651434e-02f, -4.48577330e-02f, -4.19735759e-02f, 1.11889290e-02f, 5.57310134e-02f, 2.44227564e-03f, 3.32015157e-02f, 7.67136812e-02f, 1.29241049e-01f, 1.14024542e-01f, 1.14989102e-01f, 1.40981197e-01f, 1.32508442e-01f, 1.51060149e-01f, 1.11859821e-01f, 1.06603920e-01f, 8.01239088e-02f, 5.01883440e-02f, 6.55097589e-02f, 3.93753201e-02f, 8.59929249e-03f, 8.20367336e-02f, 8.47825482e-02f, 2.00998094e-02f, 4.94591482e-02f, 8.40366352e-03f, 3.84876803e-02f, -2.89311297e-02f, -7.13221729e-04f, -3.23274620e-02f, -5.13349287e-02f, 1.81466658e-02f, 1.88917983e-02f, 2.10142136e-03f, -3.91587941e-03f, 4.94616963e-02f, 1.37985006e-01f, 1.61139011e-01f, 1.81026086e-01f, 9.80586708e-02f, 5.63763864e-02f, 8.34190771e-02f, 8.71870890e-02f, 3.97093892e-02f, 7.29003325e-02f, -2.41673086e-02f, -2.45681207e-04f, 3.84298004e-02f, -2.50330679e-02f, 2.09933016e-02f, -2.86697559e-02f, -6.67565851e-04f, 1.93605460e-02f, -3.00991256e-03f, 3.50111164e-02f, -1.68129094e-02f, -3.46326306e-02f, -5.51890209e-02f, 3.43230553e-02f, 1.63944159e-02f, 9.36960801e-03f, 4.11891490e-02f, 6.14553839e-02f, 5.22347130e-02f, 1.25985146e-01f, 8.69211629e-02f, 6.58044294e-02f, 5.98229952e-02f, 7.07716346e-02f, 8.06578174e-02f, 7.08966181e-02f, 1.79676432e-02f, 5.87591790e-02f, 7.50273913e-02f, -2.18604058e-02f, 8.49529915e-03f, 1.97510831e-02f, 5.29670641e-02f, -4.48167790e-03f, -1.06875757e-02f, 1.58758722e-02f, 3.74315903e-02f, -3.46581601e-02f, -1.29733607e-02f, -2.62318309e-02f, -1.60021652e-02f, 2.43351515e-02f, 3.41495834e-02f, 1.03781431e-03f, -3.67244780e-02f, 9.15545505e-03f, 1.07989281e-01f, 1.39788389e-01f, 6.17977493e-02f, 6.73144907e-02f, 9.37196538e-02f, 8.27079713e-02f, 2.15753168e-02f, 9.90501791e-02f, 1.34741887e-01f, 1.03692040e-01f, 1.61140695e-01f, 1.42578155e-01f, 7.38385767e-02f, 1.18012741e-01f, 9.36162919e-02f, 2.38492154e-02f, 8.26142132e-02f, 5.45959212e-02f, 1.65576097e-02f, 1.90421641e-02f, -3.25819105e-02f, 2.31184252e-02f, 1.21557340e-03f, -2.31381152e-02f, 3.84907946e-02f, -2.23522224e-02f, -1.47554474e-02f, -3.38696712e-03f, 6.96807727e-02f, 1.89363435e-01f, 1.66577145e-01f, 1.86180621e-01f, 1.58407077e-01f, 1.74940228e-01f, 2.01249704e-01f, 2.62395054e-01f, 2.36131459e-01f, 1.66869536e-01f, 2.03038916e-01f, 2.38780335e-01f, 1.56182677e-01f, 1.29514679e-01f, 1.04888722e-01f, -1.40044354e-02f, -1.71126686e-02f, -5.03783533e-03f, -3.38979848e-02f, 2.36402899e-02f, -1.74883902e-02f, 2.91413814e-03f, -1.77116822e-02f, -6.24777563e-03f, 7.02318996e-02f, 7.23464862e-02f, 6.40935004e-02f, 3.83837745e-02f, 5.45474291e-02f, 1.02611892e-01f, 1.23134635e-01f, 1.04982436e-01f, 1.28197908e-01f, 1.33770406e-01f, 1.43931285e-01f, 8.04430395e-02f, 7.27362856e-02f, 1.60862088e-01f, 8.18094462e-02f, 9.14540812e-02f, 4.01204266e-02f, 3.19446288e-02f, -5.99566195e-03f, 3.45421359e-02f, 1.42732784e-02f, -3.32616270e-04f, 2.38359086e-02f, 1.88894197e-02f },
    /* row  6 */ { 1.30884051e-02f, -2.11790297e-02f, 2.97423638e-02f, 2.65398249e-03f, 2.72894241e-02f, 3.18428874e-03f, -2.15646848e-02f, 2.35997699e-02f, -1.94496661e-03f, -3.51456031e-02f, 1.48317292e-02f, -1.46946311e-02f, -3.74819450e-02f, -4.10605371e-02f, 2.40592249e-02f, 5.60961403e-02f, 1.93792731e-02f, 2.20998824e-02f, 1.51347294e-02f, 3.36050279e-02f, -1.13647673e-02f, -1.71406027e-02f, -2.72293147e-02f, -1.03874430e-02f, -2.86176950e-02f, -1.79599579e-02f, -1.66035052e-02f, -3.09984609e-02f, 1.68027803e-02f, 2.51590461e-03f, 2.05549784e-02f, -8.80065933e-03f, -4.66873087e-02f, -6.52431920e-02f, -7.82677233e-02f, -8.75579491e-02f, -5.89830726e-02f, -5.19501343e-02f, -1.03238717e-01f, -8.87773335e-02f, -1.32379830e-01f, -1.86088473e-01f, 1.08556927e-03f, 5.88198267e-02f, 4.08415161e-02f, -2.85413605e-03f, -9.12062451e-02f, -6.57874197e-02f, -5.66996485e-02f, -5.68528548e-02f, -8.91579911e-02f, -3.94414105e-02f, -1.10398997e-02f, -2.06352733e-02f, -3.11694462e-02f, 1.64126642e-02f, -9.60605964e-03f, -3.30930538e-02f, 3.51737067e-03f, 2.65194513e-02f, -2.55099814e-02f, -6.10763580e-02f, -9.23087075e-02f, -8.22750553e-02f, -7.71887526e-02f, -4.90189791e-02f, -2.65676547e-02f, 2.86603216e-02f, 1.60470549e-02f, 6.04814216e-02f, 1.07394874e-01f, 8.42009187e-02f, 1.45015359e-01f, 1.05860457e-02f, -2.84494832e-02f, -5.22444919e-02f, -1.08757414e-01f, -1.45452827e-01f, -1.73793361e-01f, -5.10126948e-02f, 7.08949268e-02f, 2.95164566e-02f, 2.22866796e-02f, 1.28205195e-02f, -2.50752065e-02f, 1.44482478e-02f, 5.80630414e-02f, 3.81004475e-02f, -7.88360611e-02f, 4.40144315e-02f, 1.45699773e-02f, -1.70502416e-03f, 3.06996219e-02f, 6.77863434e-02f, 1.67777613e-02f, 9.92805734e-02f, 1.05308495e-01f, 1.11193225e-01f, 8.77001137e-02f, 1.37374505e-01f, 1.71588287e-01f, 1.02867305e-01f, 2.28956901e-02f, 4.09342162e-02f, 1.17567256e-02f, -5.67640662e-02f, -1.50771126e-01f, -1.29028738e-01f, -7.54762515e-02f, 1.18084820e-02f, -6.44002333e-02f, 7.52339512e-03f, 1.11691840e-02f, 5.88114522e-02f, 2.39728428e-02f, 6.50035441e-02f, 3.20513844e-02f, 1.10646680e-01f, 6.92996457e-02f, 8.41463059e-02f, -1.69800420e-03f, -4.62300591e-02f, 1.96170639e-02f, 3.77442911e-02f, 3.14767696e-02f, 4.42884071e-03f, 6.00242242e-02f, 4.23227325e-02f, 8.66892785e-02f, 3.85121927e-02f, 8.99538025e-02f, 8.40450376e-02f, -1.37412557e-02f, -1.18781552e-02f, -7.03844354e-02f, -1.58868119e-01f, -1.31792918e-01f, -1.07093915e-01f, -2.01888233e-02f, -5.42778000e-02f, -1.30946189e-03f, 1.75518990e-02f, 1.73031669e-02f, 8.96929651e-02f, 3.86789590e-02f, 1.59638718e-01f, 7.81684369e-02f, -1.06252572e-02f, 1.81801396e-03f, 3.50270129e-04f, 1.36299967e-03f, -5.22807753e-03f, -3.35775837e-02f, -6.29336685e-02f, -2.72592101e-02f, 6.70003742e-02f, 9.61178318e-02f, 3.91179211e-02f, 4.60173413e-02f, 2.33732443e-02f, -1.99669171e-02f, -3.80069949e-02f, 1.12026716e-02f, -2.58187447e-02f, -5.06832264e-02f, -1.42656952e-01f, -9.25075263e-02f, -6.91889450e-02f, 1.89806148e-03f, 4.53994162e-02f, 7.07558393e-02f, 5.62762879e-02f, 1.25021413e-01f, 6.41902760e-02f, 7.39659518e-02f, -1.36878737e-03f, 2.35896017e-02f, 9.26641002e-03f, 4.90210466e-02f, -1.83611922e-02f, -4.71947938e-02f, -5.02516255e-02f, -5.86319044e-02f, 5.20204045e-02f, 9.39599723e-02f, 9.85761061e-02f, 5.27994670e-02f, 2.50872374e-02f, 1.63754895e-02f, 2.44594440e-02f, -6.97630458e-03f, -4.63433303e-02f, -1.33830786e-01f, -2.33794734e-01f, -5.68448454e-02f, 1.88696980e-02f, 3.91168473e-03f, 1.10720053e-01f, 1.10292904e-01f, 1.26202568e-01f, 6.43874258e-02f, 8.60367492e-02f, 2.95134075e-02f, -1.41628990e-02f, 5.21238931e-02f, 4.35753427e-02f, 9.69565362e-02f, 2.89899744e-02f, 2.26661861e-02f, -1.38480682e-04f, -3.63362990e-02f, -6.03092555e-03f, 7.44671226e-02f, 6.70623928e-02f, 4.80597988e-02f, 6.96298927e-02f, 2.15735827e-02f, 1.01108057e-02f, 8.39231256e-03f, -6.57065585e-02f, -1.82227373e-01f, -2.35165998e-01f, -5.47101274e-02f, -1.28027014e-02f, 7.16913026e-03f, 1.03497446e-01f, 6.90302923e-02f, 4.01038118e-02f, 7.60819688e-02f, 4.50259261e-02f, 2.41596363e-02f, 6.43931553e-02f, 3.58588211e-02f, 6.80990964e-02f, 5.89225776e-02f, 2.65078600e-02f, 2.55036578e-02f, -4.44671065e-02f, 2.48977426e-03f, 5.00471108e-02f, 1.08231783e-01f, 1.45805746e-01f, 8.88580084e-02f, 4.96113226e-02f, 4.58046384e-02f, -5.61509505e-02f, -3.72517630e-02f, -1.18879505e-01f, -2.77571887e-01f, -1.81633785e-01f, -1.21763041e-02f, -2.40495242e-02f, 1.46113969e-02f, 4.83047552e-02f, 8.19218010e-02f, 9.77166295e-02f, 1.09502681e-01f, 7.99037330e-03f, 4.80994582e-03f, 9.26042572e-02f, 7.19645917e-02f, 7.71141499e-02f, -7.18016672e-05f, -4.13096957e-02f, -1.61495969e-01f, -1.51646972e-01f, 2.90234946e-02f, 1.27405018e-01f, 1.12818606e-01f, 7.69411922e-02f, 5.39551228e-02f, 3.59998308e-02f, 1.45481015e-02f, -1.64143890e-02f, -8.85740854e-03f, -1.22376613e-01f, -2.52866000e-01f, -1.82802886e-01f, -5.77071421e-02f, 2.34412979e-02f, 4.58664447e-02f, 4.64649461e-02f, 1.23508886e-01f, 8.10291618e-02f, 3.34349424e-02f, 5.84237557e-03f, -1.77196357e-02f, -5.35625629e-02f, -5.06902337e-02f, -1.17775463e-01f, -1.30200475e-01f, -2.46864155e-01f, -3.79097998e-01f, -2.31640205e-01f, -4.33397517e-02f, 1.36676833e-01f, 1.43386662e-01f, 8.11417624e-02f, -1.08257439e-02f, -2.43715588e-02f, -4.41414528e-02f, -5.72988912e-02f, -1.02169164e-01f, -1.37048289e-01f, -1.32766277e-01f, -2.82542724e-02f, 1.29694780e-02f, 9.02086904e-04f, 8.75931829e-02f, 4.95171733e-02f, 3.52175385e-02f, 5.58100641e-02f, -6.42988831e-02f, -1.34569049e-01f, -1.69484094e-01f, -1.92921773e-01f, -2.15347022e-01f, -2.54008561e-01f, -2.95908928e-01f, -3.87815893e-01f, -3.57414812e-01f, -2.64924705e-01f, 2.17217300e-02f, 9.71648768e-02f, 1.06195606e-01f, -4.52965405e-03f, -6.41217902e-02f, -6.86760172e-02f, -5.41207902e-02f, -8.92897099e-02f, -8.75227302e-02f, -8.21061656e-02f, -6.46038651e-02f, -1.22379465e-02f, -8.15180168e-02f, 8.21071193e-02f, 3.04477625e-02f, 2.98472010e-02f, 2.15664078e-02f, -1.69663094e-02f, -1.95347473e-01f, -2.94161558e-01f, -3.10079724e-01f, -3.03794205e-01f, -3.19948435e-01f, -2.94484407e-01f, -2.74400622e-01f, -2.73744792e-01f, -2.42868319e-01f, -1.05399720e-01f, 5.68982288e-02f, 9.09056813e-02f, 2.43362617e-02f, -1.72579400e-02f, -4.34844010e-02f, -1.01504281e-01f, -9.67993960e-02f, -1.32325277e-01f, -1.56436548e-01f, -1.24950394e-01f, 2.50804480e-02f, 1.03101805e-01f, 9.32534263e-02f, 1.01326536e-02f, 2.48506125e-02f, -2.12651342e-02f, 4.81929518e-02f, -7.13921487e-02f, -2.82253236e-01f, -3.59903574e-01f, -3.99435043e-01f, -3.55032414e-01f, -2.78727680e-01f, -1.81212276e-01f, -1.84180439e-01f, -1.72003657e-01f, -1.23348899e-01f, -1.04465690e-02f, 5.43314852e-02f, 5.92440441e-02f, 3.70746963e-02f, -4.01505120e-02f, -3.13836709e-02f, -2.63105351e-02f, -4.92495857e-02f, -4.56583351e-02f, -1.29042223e-01f, -6.95031285e-02f, 7.56553486e-02f, 1.74081624e-01f, 1.39958009e-01f, -1.12528226e-03f, 1.25559419e-02f, -1.93224149e-03f, 2.50654183e-02f, -8.17243382e-02f, -1.10602342e-01f, -2.41362140e-01f, -2.31392056e-01f, -1.92602545e-01f, -9.05893221e-02f, -6.89434484e-02f, -5.27583547e-02f, 1.82500631e-02f, -2.21439917e-03f, 6.06868453e-02f, 1.13447994e-01f, 7.63632506e-02f, 1.53116966e-02f, -1.96020026e-02f, 2.37299185e-02f, 6.82177395e-02f, 9.28380564e-02f, 5.83934598e-02f, -4.27368004e-03f, 7.94492885e-02f, 1.33951783e-01f, 1.37752101e-01f, 1.39112353e-01f, 5.79958037e-02f, 3.38650458e-02f, 4.02807221e-02f, -9.45620332e-03f, -5.73087223e-02f, -3.11361998e-02f, 1.61853079e-02f, 2.42505758e-03f, 9.08347964e-03f, 3.06010358e-02f, 2.80886423e-02f, 4.92570624e-02f, 9.76485536e-02f, 1.06066629e-01f, 1.78651765e-01f, 1.54947117e-01f, 8.89974013e-02f, -1.81180127e-02f, -2.24160049e-02f, 5.16080409e-02f, 1.19831853e-01f, 1.09809086e-01f, 8.90891626e-02f, 1.06597580e-01f, 9.56526026e-02f, 1.74355522e-01f, 1.60763577e-01f, 1.17922530e-01f, 8.53217617e-02f, -2.97592767e-02f, 6.08187281e-02f, 1.25658497e-01f, 4.19021696e-02f, 4.25064974e-02f, 1.02341995e-01f, 1.11453347e-01f, 1.04398645e-01f, 7.69613385e-02f, 8.11762363e-02f, 6.57722130e-02f, 8.93141851e-02f, 1.35777637e-01f, 1.75474644e-01f, 1.12857312e-01f, 1.00493059e-02f, -7.21910922e-03f, 3.70196886e-02f, 1.09836340e-01f, 1.32747486e-01f, 1.03569604e-01f, 9.38627794e-02f, 1.15081623e-01f, 1.25047043e-01f, 1.90891162e-01f, 1.45177424e-01f, 1.96766317e-01f, 9.49746892e-02f, -1.40461922e-02f, 4.90009785e-02f, 1.29573032e-01f, 1.61690727e-01f, 1.13677263e-01f, 1.39040574e-01f, 1.26909837e-01f, 5.21769375e-02f, 7.31835663e-02f, 2.78560203e-02f, 5.63468412e-02f, 5.34339137e-02f, 8.69615600e-02f, 1.63474366e-01f, 9.47097689e-02f, 5.73689584e-03f, 2.33152676e-02f, 3.95995677e-02f, 6.70095459e-02f, 1.14207625e-01f, 8.13313480e-03f, 7.46153593e-02f, 4.09297682e-02f, 4.89580035e-02f, 1.74308345e-01f, 1.69359073e-01f, 1.69239953e-01f, 4.32767645e-02f, 1.70221105e-02f, 6.08584769e-02f, 9.17389393e-02f, 1.88387215e-01f, 1.15090251e-01f, 9.87210944e-02f, 7.61410147e-02f, 2.59887539e-02f, 1.68448463e-02f, 1.36744836e-02f, 2.81980615e-02f, 3.12617980e-02f, 6.24796376e-02f, 1.17291905e-01f, 6.43212199e-02f, 8.37635808e-03f, 4.54882979e-02f, 4.99478579e-02f, 6.92701116e-02f, 5.02850749e-02f, -4.36764807e-02f, 1.27589302e-02f, 1.96488034e-02f, 8.11382383e-02f, 1.17530622e-01f, 1.36865631e-01f, 1.25818625e-01f, 8.75189677e-02f, 4.46378291e-02f, 4.30972166e-02f, 5.63773373e-03f, 1.64587229e-01f, 1.26643330e-01f, 1.20971918e-01f, 7.70439953e-02f, 2.62952559e-02f, 1.75567400e-02f, 4.47235443e-02f, 4.07895260e-03f, -8.37411918e-03f, 2.74425615e-02f, 2.28295680e-02f, 6.72522262e-02f, 3.45925055e-02f, 5.32446504e-02f, 3.04148626e-02f, 6.71631750e-03f, -5.01167253e-02f, -1.16219800e-02f, 2.01962329e-02f, -2.60935649e-02f, -1.54958386e-02f, 4.92895916e-02f, 1.45181492e-01f, 1.00105926e-01f, 4.80035432e-02f, 2.64369696e-02f, -3.54094594e-03f, 2.31860969e-02f, 1.45429030e-01f, 8.92722383e-02f, 5.16985990e-02f, 4.23521847e-02f, 7.58589804e-02f, 5.81742339e-02f, 4.59480956e-02f, -2.32166443e-02f, 3.40364687e-02f, -4.20491174e-02f, -1.31269218e-02f, 5.81207015e-02f, 3.34958658e-02f, 4.68733162e-02f, -7.83752184e-03f, -1.16769988e-02f, -5.43119647e-02f, -3.89946513e-02f, -4.00655419e-02f, -7.68741071e-02f, -1.95954032e-02f, 3.48978527e-02f, 1.25149161e-01f, 8.07503089e-02f, 3.91264558e-02f, 3.30540612e-02f, -1.74329076e-02f, 6.86294287e-02f, 9.91646945e-02f, 5.14094010e-02f, 2.88326088e-02f, 5.38143143e-02f, 6.25978708e-02f, 5.93433306e-02f, -2.87475325e-02f, 2.79366551e-03f, -7.22817183e-02f, -1.82550568e-02f, -4.72653210e-02f, -2.49803290e-02f, 3.74170803e-02f, 1.04021495e-02f, -2.66396021e-03f, -3.10625881e-02f, -3.62643488e-02f, -6.72102422e-02f, -5.46303876e-02f, -8.27718675e-02f, 5.03313309e-03f, 7.50779510e-02f, 1.67158954e-02f, 1.43585891e-01f, -2.71340664e-02f, 5.34880254e-03f, -5.96618513e-03f, 7.77141973e-02f, 9.58724990e-02f, 8.99084210e-02f, 8.44848901e-02f, 1.18929386e-01f, 4.70947810e-02f, 1.02140680e-02f, -2.44696178e-02f, -4.56989221e-02f, -7.32280090e-02f, -6.75947592e-02f, -3.91193777e-02f, -3.52223520e-04f, -1.78602710e-02f, -2.90834177e-02f, -1.72664858e-02f, -1.66907441e-02f, -3.20631899e-02f, -1.22574652e-02f, -6.57012612e-02f, -2.82903984e-02f, -4.46918271e-02f, 2.38260124e-02f, 2.44808048e-02f, -4.05514836e-02f, -3.31964307e-02f, -1.60385426e-02f, 2.02985071e-02f, 5.89612797e-02f, 6.61287382e-02f, 1.30772933e-01f, 9.79671106e-02f, 1.37833565e-01f, 8.35307315e-02f, -1.31335389e-02f, 6.33983733e-03f, -2.20206846e-02f, -6.52851118e-03f, -5.43313995e-02f, -5.30923419e-02f, -5.97481541e-02f, -2.64160219e-03f, -5.57148829e-02f, -4.94339168e-02f, -4.32022400e-02f, -5.01491353e-02f, -9.17250291e-02f, -8.30728561e-02f, -8.30218792e-02f, -7.09895045e-02f, -3.78187783e-02f, -5.49210310e-02f, 3.49925761e-03f, 2.45979056e-02f, -1.15088094e-02f, 1.37955733e-02f, 7.40837306e-02f, 1.48082718e-01f, 2.09598750e-01f, 1.47095442e-01f, 1.41222224e-01f, 7.62856454e-02f, 7.41877183e-02f, 4.47842181e-02f, 3.80445868e-02f, 5.91017529e-02f, 1.55005353e-02f, 7.18449354e-02f, -8.48511420e-03f, -2.10257489e-02f, -7.28967860e-02f, -2.04502270e-02f, -1.12450682e-01f, -1.14702143e-01f, -8.05282667e-02f, -3.33699360e-02f, -1.06368013e-01f, -8.76451060e-02f, -3.89614725e-03f, 7.89047964e-03f, 7.79059902e-02f, 2.93758176e-02f, 2.17295326e-02f, -3.41776274e-02f, -1.33816088e-02f, 5.14141470e-02f, 8.27222839e-02f, 2.73244791e-02f, 5.63546121e-02f, 6.57616183e-02f, 8.94410461e-02f, 1.30359948e-01f, 8.72067213e-02f, 6.72317967e-02f, 1.15781903e-01f, 5.31266481e-02f, 1.65324640e-02f, -4.52673174e-02f, -3.62444036e-02f, -3.15376967e-02f, -1.44468799e-01f, -1.20346360e-01f, -1.42020598e-01f, -1.25272602e-01f, -1.21250972e-01f, -7.76986629e-02f, -7.00144991e-02f, 3.26096565e-02f, 4.31795903e-02f, 5.93364984e-03f, -1.15926862e-02f, 3.07665430e-02f, 2.73250975e-02f, -1.78543925e-02f, -1.50079941e-02f, -1.09706387e-01f, -7.58963078e-02f, 2.82967370e-02f, -7.28194835e-04f, -3.11239567e-02f, -4.76972833e-02f, 2.10231282e-02f, -4.91687208e-02f, -9.18740258e-02f, -7.55234584e-02f, 1.78684071e-02f, 6.39623776e-03f, -1.02436787e-03f, -3.65155116e-02f, -4.40418497e-02f, -3.00589744e-02f, -4.65292633e-02f, -5.29493093e-02f, 2.59056985e-02f, -1.40168928e-02f, 1.22616347e-02f, 1.49532929e-02f, -1.67966969e-02f, 3.33476178e-02f, 2.62682587e-02f, -1.49041172e-02f, -1.40211210e-02f, 2.51104739e-02f, 4.89956662e-02f, 5.03339767e-02f, 4.56813909e-02f, 2.04679929e-02f, 6.68442622e-02f, 1.14476979e-01f, 5.13066053e-02f, 2.31092144e-02f, 8.99084955e-02f, 6.92818910e-02f, 6.73428103e-02f, 3.73219140e-02f, 2.03317627e-02f, -1.93830486e-02f, -1.47639699e-02f, 1.71636026e-02f, -6.52916580e-02f, -7.68865421e-02f, 1.01067498e-02f, 2.22234055e-03f, 9.33173671e-03f, -1.25744101e-02f, 2.90583931e-02f },
