//Numpy array shape [64]
//Min -0.160564303398
//Max 0.230299487710
//Number of zeros 0

#ifndef B2_H_
#define B2_H_

#ifndef __SYNTHESIS__
_0_bias_t b2[64];
#else
_0_bias_t b2[64] = {0.0017617099, 0.0555078238, 0.1362982988, 0.1082348377, 0.0784872994, 0.0501282699, 0.0052769370, -0.0536602437, 0.1134346798, -0.0976124257, 0.1015964821, 0.0040650931, 0.2302994877, -0.0639757216, -0.0008861262, 0.0307916719, 0.1043649763, -0.0147824213, 0.2204460055, -0.0777858645, 0.1151414886, 0.1994180679, 0.0261602420, 0.0709066391, 0.0059951697, 0.0740467682, 0.0767346174, 0.1897397339, -0.1073063537, -0.1039715633, -0.1353845745, -0.1605643034, -0.0551238693, -0.0362840220, -0.0284725297, 0.0127115417, -0.1272230744, 0.1276702434, -0.0586333536, 0.0426121056, 0.0218186770, 0.0815383494, 0.1109992936, -0.0798095390, -0.0689960942, 0.0569266453, 0.0584580638, 0.1256607920, -0.0087614423, 0.0565498360, 0.1374134868, 0.0211607497, 0.0161210280, 0.1736979187, 0.1205054820, 0.0966095179, -0.0889846087, 0.1954048574, -0.0288816635, 0.0041352953, -0.0170530900, 0.0314224288, 0.1147273630, -0.0701135322};

#endif

#endif
